\data\
ngram 1=765
ngram 2=2710
ngram 3=3649
ngram 4=3825
ngram 5=3545

\1-grams:
-3.4439821	<unk>	0
0	<s>	-0.80434245
-0.90620524	</s>	0
-2.5123882	qui	-0.21370335
-2.046849	est	-0.2474989
-1.8848407	alfred	-0.35783795
-2.3081791	mon	-0.19704749
-2.9106848	robot	-0.17406349
-2.3787863	ce	-0.33474594
-2.706342	petit	-0.17445114
-3.065842	noir	-0.12081045
-1.331467	et	-0.2686208
-3.065842	blanc	-0.2130128
-3.065842	toc	-0.17375363
-3.2952147	là	-0.12081045
-1.4104223	ou	-0.25830334
-3.2952147	habites-tu	-0.12081045
-2.0841043	en	-0.18738198
-3.2952147	moment	-0.12081045
-2.146765	que	-0.2836968
-2.046849	tu	-0.29928753
-3.2952147	habites	-0.12081045
-3.2952147	résides	-0.12081045
-3.065842	où	-0.12081045
-2.9106848	aujourd'hui	-0.33795154
-3.1790767	aimes-tu	-0.12081045
-2.029355	le	-0.17109837
-3.2952147	sexe	-0.12081045
-3.065842	ami	-0.16446932
-3.2952147	aimes	-0.12081043
-2.146765	pas	-0.2042989
-3.065842	es	-0.12645367
-3.1790767	marié	-0.12081045
-2.2200158	bien	-0.24513903
-2.7966044	ne	-0.17746654
-2.1248581	l'	-0.18937382
-2.4189205	es-tu	-0.1921511
-2.3787863	avec	-0.28940806
-1.8063337	un	-0.25708887
-3.2952147	autre	-0.12081045
-3.2952147	garçon	-0.12081045
-2.0841043	une	-0.26543394
-3.2952147	fille	-0.12081045
-2.9106848	vincent	-0.16317986
-2.9106848	stéphanie	-0.17445114
-2.706342	encore	-0.13796493
-2.3420494	axel	-0.20753276
-2.1942015	je	-0.29941183
-2.2767603	te	-0.17368865
-3.2952147	dérange	-0.12081045
-3.1790767	dis-moi	-0.155825
-2.3081791	si	-0.37851357
-2.5679379	vraiment	-0.13796493
-3.2952147	nul	-0.12081045
-3.065842	vois	-0.12081045
-2.4631448	me	-0.13775106
-3.2952147	demande	-0.12081045
-3.1790767	stupide	-0.19391206
-3.2952147	simplement	-0.12081045
-3.2952147	ridicule	-0.12081045
-2.6316497	voire	-0.12081043
-2.706342	bête	-0.16446932
-3.065842	trouve	-0.12081045
-3.2952147	minuscule	-0.12081045
-2.706342	grand	-0.155825
-3.065842	n'	-0.12081045
-2.5679379	même	-0.21594912
-3.065842	énorme	-0.19391206
-3.1790767	géant	-0.23566322
-2.6316497	fort	-0.17406349
-2.706342	intelligent	-0.21594912
-2.3787863	car	-0.3946569
-3.065842	as	-0.13447942
-3.2952147	cerveau	-0.12081045
-3.2952147	développé	-0.12081045
-2.706342	faible	-0.31988168
-3.2952147	sans	-0.12081045
-3.2952147	forces	-0.12081045
-3.065842	amoureux	-0.17445114
-2.9106848	peux	-0.13447942
-2.9106848	aimer	-0.15064672
-2.6316497	peux-tu	-0.15978725
-2.2474618	ton	-0.18570878
-3.2952147	prochain	-0.12081045
-2.0841043	les	-0.21782461
-3.065842	yeux	-0.15064672
-3.065842	bleu	-0.19391206
-3.2952147	constate	-0.12081045
-1.9963491	des	-0.22520114
-3.065842	caméras	-0.19391206
-3.065842	combien	-0.16317986
-1.7142287	de	-0.2467824
-2.4189205	pour	-0.1395586
-1.9101499	la	-0.27242464
-3.2952147	vision	-0.12081045
-2.7966044	as-tu	-0.15474755
-2.9106848	voir	-0.16317986
-3.065842	choses	-0.18806319
-3.065842	micros	-0.18806319
-3.2952147	microphones	-0.12081045
-3.2952147	micro	-0.12081045
-3.065842	haut-parleur	-0.17375363
-3.2952147	haut-parleurs	-0.12081045
-3.1790767	certain	-0.12081045
-3.065842	sûr	-0.19391206
-3.065842	raison	-0.23566322
-3.2952147	maitre	-0.12081045
-3.1790767	créateur	-0.12081045
-3.2952147	inventeur	-0.12081045
-2.1698358	d'	-0.1538679
-2.6316497	être	-0.14647578
-3.1790767	botmaster	-0.12081045
-3.065842	copain	-0.16446932
-3.065842	pote	-0.19391206
-2.7966044	ma	-0.16815324
-3.065842	copine	-0.17445114
-3.2952147	amie	-0.12081045
-2.4189205	mais	-0.184633
-3.1790767	soeur	-0.19391206
-2.706342	ni	-0.16446932
-2.706342	mère	-0.16446932
-3.1790767	cousine	-0.12081045
-2.706342	moins	-0.12081043
-3.2952147	belle	-0.12081045
-2.9106848	père	-0.16446932
-2.6316497	comprendre	-0.19056019
-3.2952147	saisi	-0.12081045
-2.4631448	tout	-0.15197271
-3.2952147	comprends	-0.12081045
-3.2952147	saisis	-0.12081045
-3.2952147	saisir	-0.12081045
-3.1790767	chose	-0.21013409
-3.2952147	truc	-0.12081045
-2.2200158	a	-0.13284878
-2.5123882	dire	-0.1994714
-3.065842	quelque	-0.2130128
-2.9106848	rien	-0.12081045
-3.065842	camarade	-0.2130128
-3.1790767	amis	-0.12081045
-3.1790767	copains	-0.12081045
-3.2952147	copines	-0.12081045
-3.2952147	camarades	-0.12081045
-2.5123882	quelle	-0.21170194
-2.9106848	couleur	-0.19391206
-3.1790767	rouge	-0.23566322
-3.1790767	vert	-0.12081045
-3.1790767	orange	-0.12081045
-3.2952147	jaune	-0.12081045
-3.2952147	violet	-0.12081045
-3.2952147	rose	-0.12081045
-3.1790767	aimerais	-0.12081045
-2.3420494	faire	-0.24505724
-2.3787863	quoi	-0.21290557
-3.2952147	étais	-0.12081045
-3.1790767	humain	-0.19391206
-3.1790767	suis-moi	-0.19391206
-3.2952147	jusqu'	-0.12081045
-2.5123882	à	-0.16388278
-3.2952147	cuisine	-0.12081045
-2.5679379	quel	-0.192104
-3.1790767	nom	-0.19391206
-2.6316497	comment	-0.21239439
-2.9106848	m'	-0.12081045
-3.2952147	appelle	-0.12081045
-3.065842	suis	-0.12081045
-3.065842	maintenant	-0.19391206
-2.5679379	qu'	-0.17894122
-3.2952147	humanoide	-0.12081045
-3.065842	rechercher	-0.18806319
-2.4631448	sur	-0.24121559
-2.9106848	internet	-0.21594912
-3.1790767	donnée	-0.12081045
-3.065842	recherche	-0.19391206
-2.9106848	wikipédia	-0.20335741
-3.065842	madonna	-0.17445114
-3.1790767	einstein	-0.12081045
-3.1790767	newton	-0.23566322
-3.1790767	connais-tu	-0.14680316
-3.2952147	shakira	-0.12081045
-3.1790767	céline	-0.23566322
-3.2952147	dion	-0.12081045
-2.3787863	t'	-0.16667596
-3.2952147	appelles	-0.12081045
-3.1790767	age	-0.12081045
-3.065842	sais-tu	-0.15064672
-3.1790767	sinon	-0.12081045
-3.1790767	fais	-0.12081045
-3.1790767	sais	-0.12081045
-3.1790767	veux	-0.12081045
-3.2952147	rêves-tu	-0.12081045
-3.2952147	rêver	-0.12081045
-3.2952147	voyager	-0.12081045
-2.046849	dans	-0.6174673
-3.1790767	rêves	-0.12081045
-2.706342	ta	-0.155825
-3.065842	préférée	-0.15313633
-3.065842	livre	-0.17445114
-3.1790767	préféré	-0.12081045
-3.065842	musique	-0.18268497
-3.2952147	quelles	-0.12081045
-2.7966044	sont	-0.155825
-2.6316497	tes	-0.15302905
-3.2952147	musiques	-0.12081045
-3.2952147	préférées	-0.12081045
-3.065842	prénom	-0.17445114
-3.1790767	préférés	-0.12081045
-3.065842	loisirs	-0.18268497
-3.1790767	quels	-0.23566322
-2.9106848	veux-tu	-0.14383705
-2.7966044	chanter	-0.17445114
-3.1790767	chantes	-0.12081045
-2.4631448	moi	-0.13898677
-2.7966044	jour	-0.2314161
-2.9106848	trouver	-0.12081045
-3.1790767	ici	-0.23566322
-3.2952147	chercher	-0.12081045
-2.9106848	par	-0.12081045
-2.4631448	manger	-0.27887294
-3.1790767	nourriture	-0.12081045
-3.1790767	capable	-0.17445114
-3.2952147	nourrir	-0.12081045
-3.2952147	manges-tu	-0.12081045
-2.9106848	quand	-0.12081043
-2.7966044	faim	-0.21013409
-3.065842	sommes-nous	-0.2130128
-2.6316497	nous	-0.18120381
-3.2952147	sommes	-0.12081045
-3.2952147	date	-0.12081045
-2.5123882	du	-0.18005528
-3.1790767	mois	-0.12081045
-3.1790767	année	-0.12081045
-3.1790767	heure	-0.17445114
-3.1790767	est-il	-0.12081045
-2.7966044	il	-0.15064672
-3.2952147	adresse	-0.12081045
-3.2952147	ip	-0.12081045
-3.2952147	donnes	-0.12081045
-3.1790767	pouvais	-0.23566322
-3.2952147	futur	-0.12081045
-3.2952147	été	-0.12081045
-3.1790767	fabriqué	-0.12081045
-3.2952147	conçu	-0.12081045
-3.2952147	né	-0.12081045
-3.2952147	créé	-0.12081045
-3.2952147	commencé	-0.12081045
-2.3420494	parler	-0.31573698
-3.1790767	seras-tu	-0.12081045
-3.1790767	mort	-0.12081045
-3.2952147	décédé	-0.12081045
-3.1790767	hors	-0.23566322
-3.2952147	service	-0.12081045
-3.2952147	batteries	-0.12081045
-3.2952147	seront	-0.12081045
-3.1790767	vides	-0.23566322
-3.2952147	aliments	-0.12081045
-2.706342	jouer	-0.2314161
-2.5679379	toi	-0.24761581
-3.1790767	viens	-0.23566322
-3.2952147	jouons	-0.12081045
-3.065842	tous	-0.2130128
-3.1790767	deux	-0.12081045
-3.1790767	danser	-0.12081045
-3.2952147	doucement	-0.12081045
-3.1790767	jouir	-0.23566322
-3.065842	beau	-0.12081045
-2.7966044	temps	-0.15064672
-2.5123882	boire	-0.25500995
-3.2952147	alimenter	-0.12081045
-2.706342	dormir	-0.17445114
-2.9106848	plusieurs	-0.12081045
-3.2952147	heures	-0.12081045
-3.1790767	souffrir	-0.23566322
-3.2952147	mourir	-0.12081045
-3.065842	vivre	-0.16317986
-3.065842	analyser	-0.17445114
-3.2952147	traduire	-0.12081045
-3.1790767	examiner	-0.23566322
-3.2952147	dessiner	-0.12081045
-3.2952147	méchant	-0.12081045
-3.1790767	gentil	-0.23566322
-3.1790767	doué	-0.12081045
-3.2952147	dangereux	-0.12081045
-3.2952147	mortel	-0.12081045
-3.2952147	sauvage	-0.12081045
-3.2952147	violent	-0.12081045
-3.2952147	vulgaire	-0.12081045
-3.2952147	sage	-0.12081045
-3.2952147	doux	-0.12081045
-3.2952147	attentif	-0.12081045
-3.2952147	moyen	-0.12081045
-3.065842	rire	-0.12081045
-3.1790767	marcher	-0.12081045
-3.065842	pense	-0.19391206
-2.4631448	très	-0.19594847
-3.2952147	parier	-0.12081045
-2.706342	écouter	-0.155825
-3.2952147	calmement	-0.12081045
-3.1790767	calculer	-0.12081045
-3.2952147	rapidement	-0.12081045
-3.2952147	comparer	-0.12081045
-3.2952147	parlions	-0.12081045
-3.065842	ensemble	-0.19391206
-3.1790767	accord	-0.17445114
-3.2952147	discutons	-0.12081045
-3.1790767	parlons	-0.12081045
-2.706342	j'	-0.20018609
-2.9106848	aime	-0.14523038
-3.2952147	parles-moi	-0.12081045
-3.2952147	camera	-0.12081045
-3.065842	bouche	-0.17375363
-2.9106848	oreilles	-0.33795154
-3.1790767	capteurs	-0.17445114
-3.1790767	capacités	-0.23566322
-3.1790767	caméra	-0.16317986
-3.065842	bras	-0.20335741
-3.065842	mains	-0.17445114
-3.1790767	jambes	-0.19391206
-3.2952147	pieds	-0.12081045
-3.1790767	tête	-0.12081045
-3.2952147	cou	-0.12081045
-3.2952147	reconnaissance	-0.12081045
-3.1790767	vocale	-0.23566322
-3.2952147	synthèse	-0.12081045
-3.2952147	pouvons-nous	-0.12081045
-3.1790767	bavarder	-0.12081045
-3.2952147	dialoguer	-0.12081045
-3.2952147	documenter	-0.12081045
-3.2952147	personne	-0.12081045
-2.7966044	on	-0.155825
-3.1790767	objet	-0.12081045
-3.2952147	mot	-0.12081045
-3.2952147	personnage	-0.12081045
-3.2952147	météo	-0.12081045
-3.2952147	système	-0.12081045
-3.1790767	batterie	-0.12081045
-3.2952147	niveau	-0.12081045
-3.2952147	systèmes	-0.12081045
-3.2952147	consultes	-0.12081045
-3.1790767	parles	-0.12081045
-3.065842	plein	-0.2130128
-3.2952147	recherches	-0.12081045
-3.2952147	renseignes	-0.12081045
-2.3420494	comme	-0.192104
-3.2952147	pourquoi	-0.12081045
-3.2952147	existes-tu	-0.12081045
-3.2952147	vie	-0.12081045
-3.1790767	vivant	-0.12081045
-3.2952147	respires	-0.12081045
-3.2952147	respires-tu	-0.12081045
-3.2952147	réfléchis-tu	-0.12081045
-3.1790767	eau	-0.12081045
-3.2952147	penses	-0.12081045
-3.065842	penser	-0.12081045
-3.1790767	seul	-0.12081045
-2.9106848	ai	-0.14383705
-3.2952147	inventé	-0.12081045
-3.2952147	inventer	-0.12081045
-3.2952147	objets	-0.12081045
-3.2952147	connectés	-0.12081045
-3.2952147	promènes-toi	-0.12081045
-2.9106848	va	-0.17445114
-3.2952147	ballader	-0.12081045
-3.1790767	promener	-0.12081045
-3.2952147	maison	-0.12081045
-3.1790767	courir	-0.12081045
-3.065842	sauter	-0.12081045
-3.2952147	foncer	-0.12081045
-3.2952147	distinguer	-0.12081045
-3.2952147	rendre	-0.12081045
-3.1790767	salon	-0.16317986
-3.2952147	salle	-0.12081045
-3.1790767	diriges-toi	-0.19391206
-3.2952147	couloir	-0.12081045
-3.2952147	chambre	-0.12081045
-3.2952147	bain	-0.12081045
-3.1790767	rends-toi	-0.19391206
-3.065842	entrée	-0.16317986
-2.5679379	vers	-0.4326641
-3.1790767	vas	-0.12081045
-3.2952147	diriger	-0.12081045
-3.2952147	jouait	-0.12081045
-3.065842	jeu	-0.17445114
-2.7966044	au	-0.19391206
-3.1790767	chifumi	-0.12081045
-3.2952147	couleurs	-0.12081045
-2.5123882	c'	-0.5860032
-3.2952147	enfant	-0.12081045
-2.706342	fait	-0.15795718
-3.1790767	parle	-0.23566322
-3.2952147	analyse	-0.12081045
-2.9106848	non	-0.16317986
-3.2952147	n	-0.12081045
-3.065842	envie	-0.18806319
-3.2952147	instant	-0.12081045
-2.9106848	cela	-0.12081045
-3.2952147	dit	-0.12081045
-3.2952147	actuellement	-0.12081045
-3.1790767	oui	-0.12081045
-3.2952147	bonjour	-0.12081045
-3.2952147	vas-tu	-0.12081045
-3.2952147	salut	-0.12081045
-3.2952147	hello	-0.12081045
-3.2952147	ça	-0.12081045
-3.1790767	content	-0.12081045
-3.1790767	robots	-0.12081045
-3.1790767	espère	-0.23566322
-3.2952147	bientôt	-0.12081045
-3.2952147	pars	-0.12081045
-3.2952147	coucher	-0.12081045
-3.2952147	revoir	-0.12081045
-3.2952147	monde	-0.12081045
-3.2952147	vais	-0.12081045
-3.2952147	était	-0.12081045
-3.2952147	plaisir	-0.12081045
-3.2952147	sympas	-0.12081045
-3.1790767	converser	-0.23566322
-3.2952147	mémoriser	-0.12081045
-3.1790767	suivante	-0.23566322
-3.2952147	mémorise	-0.12081045
-3.1790767	information	-0.12081045
-3.2952147	font	-0.12081045
-2.7966044	fois	-0.12081045
-3.065842	trois	-0.12081045
-3.2952147	quatre	-0.12081045
-3.2952147	cinq	-0.12081045
-3.2952147	six	-0.12081045
-3.2952147	calcule	-0.12081045
-3.1790767	sept	-0.12081045
-3.1790767	huit	-0.23566322
-3.1790767	neuf	-0.12081045
-2.9106848	dix	-0.12081045
-3.2952147	onze	-0.12081045
-3.2952147	douze	-0.12081045
-3.2952147	treize	-0.12081045
-3.2952147	quatorze	-0.12081045
-3.2952147	quinze	-0.12081045
-3.2952147	seize	-0.12081045
-3.2952147	vingt	-0.12081045
-3.2952147	fruits	-0.12081045
-3.2952147	légumes	-0.12081045
-3.2952147	liquides	-0.12081045
-3.2952147	alcool	-0.12081045
-3.2952147	bonbons	-0.12081045
-3.2952147	gâteaux	-0.12081045
-3.2952147	sucreries	-0.12081045
-3.2952147	général	-0.12081045
-3.1790767	bois	-0.12081045
-3.2952147	jus	-0.12081045
-3.1790767	fruit	-0.12081045
-3.2952147	spectacles	-0.12081045
-3.2952147	comiques	-0.12081045
-3.2952147	humoristiques	-0.12081045
-3.2952147	musicaux	-0.12081045
-3.2952147	concerts	-0.12081045
-3.2952147	dramatiques	-0.12081045
-3.2952147	animaliers	-0.12081045
-2.9106848	regarder	-0.16317986
-3.2952147	films	-0.12081045
-3.2952147	science	-0.12081045
-3.2952147	combat	-0.12081045
-3.1790767	j	-0.19391206
-3.065842	adore	-0.12081045
-3.2952147	découvertes	-0.12081045
-3.1790767	déplacer	-0.12081045
-3.2952147	circule	-0.12081045
-3.2952147	différentes	-0.12081045
-3.2952147	zones	-0.12081045
-3.2952147	mémorises	-0.12081045
-2.7966044	merci	-0.21013409
-2.9106848	beaucoup	-0.12081045
-3.2952147	remercie	-0.12081045
-3.2952147	mes	-0.12081045
-3.2952147	cheveux	-0.12081045
-3.2952147	brun	-0.12081045
-3.2952147	blond	-0.12081045
-3.2952147	chatain	-0.12081045
-3.2952147	gris	-0.12081045
-3.2952147	moi-aussi	-0.12081045
-3.2952147	sports	-0.12081045
-3.2952147	activités	-0.12081045
-3.2952147	sportives	-0.12081045
-3.2952147	désire	-0.12081045
-3.065842	connaitre	-0.12081045
-2.9106848	savoir	-0.12081045
-3.2952147	découvrir	-0.12081045
-3.2952147	tas	-0.12081045
-3.2952147	désires-tu	-0.12081045
-3.2952147	quantifier	-0.12081045
-3.2952147	sentir	-0.12081045
-3.2952147	entoure	-0.12081045
-3.065842	ressentir	-0.12081045
-3.2952147	classer	-0.12081045
-3.2952147	classifier	-0.12081045
-3.2952147	souhaite	-0.12081045
-3.2952147	études	-0.12081045
-3.2952147	histoire	-0.12081045
-3.2952147	géographie	-0.12081045
-3.2952147	maths	-0.12081045
-3.2952147	sciences	-0.12081045
-3.2952147	biologie	-0.12081045
-3.2952147	physique	-0.12081045
-3.2952147	travail	-0.12081045
-3.2952147	apprécie	-0.12081045
-3.2952147	énormément	-0.12081045
-3.1790767	intelligence	-0.23566322
-3.2952147	artificielle	-0.12081045
-2.9106848	pleurer	-0.17445114
-3.1790767	mettre	-0.23566322
-3.2952147	colère	-0.12081045
-3.2952147	réfléchir	-0.12081045
-3.2952147	prêt	-0.12081045
-3.2952147	obéir	-0.12081045
-3.2952147	désobéir	-0.12081045
-3.1790767	moche	-0.12081045
-2.7966044	intéressant	-0.27030417
-3.1790767	cultivé	-0.12081045
-3.2952147	rigolo	-0.12081045
-3.2952147	possèdes	-0.12081045
-3.2952147	servos	-0.12081045
-3.2952147	dynamixels	-0.12081045
-3.2952147	motorisée	-0.12081045
-3.2952147	animent	-0.12081045
-3.2952147	taille	-0.12081045
-2.9106848	navré	-0.12081045
-3.1790767	confus	-0.12081045
-2.9106848	désolé	-0.12081045
-3.2952147	conprends	-0.12081045
-3.1790767	sembles	-0.12081045
-3.1790767	joyeux	-0.12081045
-3.1790767	ravi	-0.23566322
-3.2952147	trop	-0.12081045
-3.065842	triste	-0.12081045
-3.1790767	maussade	-0.12081045
-2.9106848	avoir	-0.21013409
-3.2952147	tristesse	-0.12081045
-3.2952147	compassion	-0.12081045
-3.1790767	peine	-0.12081045
-3.2952147	affamé	-0.12081045
-2.7966044	aussi	-0.16446932
-3.2952147	assoiffé	-0.12081045
-3.065842	soif	-0.12081045
-3.2952147	parfois	-0.12081045
-3.2952147	manquer	-0.12081045
-3.2952147	parce	-0.12081045
-3.2952147	penses-tu	-0.12081045
-3.2952147	scientifique	-0.12081045
-3.2952147	manque	-0.12081045
-3.2952147	avis	-0.12081045
-3.2952147	look	-0.12081045
-3.2952147	adores	-0.12081045
-3.2952147	aimons	-0.12081045
-3.2952147	émotions	-0.12081045
-3.1790767	donne-moi	-0.17445114
-3.2952147	fou	-0.12081045
-3.065842	dis	-0.17445114
-3.2952147	détéste	-0.12081045
-3.2952147	plaisante	-0.12081045
-3.2952147	hais	-0.12081045
-3.2952147	plaisanter	-0.12081045
-3.2952147	discuter	-0.12081045
-3.1790767	avant	-0.23566322
-3.2952147	sens-tu	-0.12081045
-3.1790767	assez	-0.12081045
-3.2952147	soirée	-0.12081045
-3.1790767	entendre	-0.12081045
-3.2952147	raconter	-0.12081045
-3.2952147	poème	-0.12081045
-3.065842	baiser	-0.17445114
-3.2952147	calins	-0.12081045
-3.1790767	amour	-0.19391206
-3.2952147	sommeil	-0.12081045
-3.2952147	fatigué	-0.12081045
-3.1790767	fais-tu	-0.12081045
-3.2952147	visages	-0.12081045
-3.2952147	entends-tu	-0.12081045
-3.2952147	devant	-0.12081045
-3.2952147	environnement	-0.12081045
-3.1790767	besoin	-0.19391206
-3.2952147	malin	-0.12081045
-3.2952147	besoins	-0.12081045
-3.2952147	envies	-0.12081045
-3.2952147	cause	-0.12081045
-3.065842	dehors	-0.19391206
-3.2952147	pleut	-0.12081045
-3.1790767	lacunes	-0.12081045
-3.1790767	ia	-0.12081045
-3.2952147	développée	-0.12081045
-3.2952147	performante	-0.12081045
-3.2952147	importantes	-0.12081045
-3.2952147	télévision	-0.12081045
-3.2952147	lorsque	-0.12081045
-3.2952147	jardin	-0.12081045
-3.2952147	paysage	-0.12081045
-3.2952147	ciel	-0.12081045
-3.2952147	nuages	-0.12081045
-3.2952147	fenêtre	-0.12081045
-3.2952147	porte	-0.12081045
-2.9106848	d	-0.12081045
-2.7966044	puis	-0.155825
-3.2952147	sons	-0.12081045
-3.2952147	audio	-0.12081045
-3.2952147	nouveautés	-0.12081045
-3.2952147	souhaites-tu	-0.12081045
-3.1790767	parle-moi	-0.12081045
-3.1790767	lentement	-0.12081045
-3.2952147	comprenne	-0.12081045
-3.2952147	racontes-moi	-0.12081045
-3.1790767	donnes-moi	-0.23566322
-3.2952147	donnez	-0.12081045
-3.2952147	sens	-0.12081045
-3.2952147	super	-0.12081045
-3.1790767	cool	-0.12081045
-3.1790767	parfait	-0.12081045
-3.1790767	génial	-0.12081045
-3.1790767	enrichissant	-0.12081045
-2.9106848	grave	-0.12081045
-3.2952147	attention	-0.12081045
-3.2952147	impressionnant	-0.12081045
-3.2952147	fait-il	-0.12081045
-3.2952147	renseignes-moi	-0.12081045
-3.2952147	climat	-0.12081045
-3.2952147	fera	-0.12081045
-2.9106848	demain	-0.18806319
-3.2952147	après	-0.12081045
-3.1790767	frère	-0.12081045
-3.2952147	frères	-0.12081045
-3.2952147	soeurs	-0.12081045
-3.2952147	parents	-0.12081045
-3.2952147	cousin	-0.12081045
-3.2952147	oncle	-0.12081045
-3.2952147	tante	-0.12081045
-3.1790767	roues	-0.17445114
-3.2952147	servir	-0.12081045
-3.1790767	doigts	-0.12081045
-3.2952147	oeil	-0.12081045
-3.2952147	oreille	-0.12081045
-3.2952147	reconnaitre	-0.12081045
-3.2952147	herbe	-0.12081045
-3.2952147	pelouse	-0.12081045
-3.2952147	regardes-tu	-0.12081045
-3.1790767	souvent	-0.12081045
-3.2952147	télé	-0.12081045
-3.2952147	sortir	-0.12081045
-3.2952147	son	-0.12081045
-3.2952147	heureux	-0.12081045
-3.2952147	choisis	-0.12081045
-3.2952147	choisir	-0.12081045
-3.2952147	premier	-0.12081045
-3.2952147	expliques-moi	-0.12081045
-3.1790767	expliquer	-0.12081045
-3.2952147	redis-moi	-0.12081045
-3.2952147	souhaites	-0.12081045
-3.2952147	refais-moi	-0.12081045
-3.2952147	démonstration	-0.12081045
-3.2952147	recommences	-0.12081045
-3.2952147	faisais	-0.12081045
-3.2952147	essayes	-0.12081045
-3.2952147	nouveau	-0.12081045
-3.065842	plus	-0.12081045
-3.2952147	dote	-0.12081045
-3.1790767	est-elle	-0.12081045
-3.2952147	ordinateur	-0.12081045
-3.2952147	portable	-0.12081045
-3.2952147	tablette	-0.12081045
-3.2952147	composants	-0.12081045
-3.2952147	electroniques	-0.12081045
-3.2952147	fonctionnes-tu	-0.12081045
-3.1790767	électricité	-0.12081045
-3.2952147	recharger	-0.12081045
-3.2952147	recharges	-0.12081045
-3.2952147	alimentes	-0.12081045
-3.2952147	exploitation	-0.12081045
-3.2952147	robotique	-0.12081045
-3.2952147	disposes-tu	-0.12081045
-3.2952147	nez	-0.12081045
-3.2952147	laser	-0.12081045
-3.2952147	tridimensionnelle	-0.12081045
-3.2952147	stéréo	-0.12081045
-3.2952147	antenne	-0.12081045
-3.2952147	antennes	-0.12081045
-3.2952147	capteur	-0.12081045
-3.2952147	sol	-0.12081045
-3.2952147	roulette	-0.12081045
-3.2952147	directionnelle	-0.12081045
-3.2952147	déplaces	-0.12081045
-3.2952147	carte	-0.12081045
-3.2952147	processeur	-0.12081045
-3.2952147	informatique	-0.12081045
-3.1790767	rouler	-0.12081045
-3.2952147	mal	-0.12081045
-3.2952147	parfaitement	-0.12081045
-3.2952147	effet	-0.12081045
-3.2952147	ca	-0.12081045
-3.2952147	air	-0.12081045
-3.2952147	top	-0.12081045
-3.2952147	disposes	-0.12081045
-3.2952147	corps	-0.12081045
-3.2952147	genoux	-0.12081045
-3.2952147	roulettes	-0.12081045
-3.2952147	ainsi	-0.12081045
-3.2952147	station	-0.12081045
-3.2952147	recharge	-0.12081045
-3.2952147	base	-0.12081045
-3.2952147	distance	-0.12081045
-3.2952147	sera	-0.12081045
-3.2952147	informations	-0.12081045
-3.2952147	toute	-0.12081045
-3.2952147	déplaces-toi	-0.12081045
-3.2952147	face	-0.12081045
-3.2952147	humains	-0.12081045
-3.2952147	propre	-0.12081045
-3.1790767	maître	-0.23566322
-3.2952147	elles	-0.12081045
-3.2952147	géniales	-0.12081045
-3.2952147	promènes	-0.12081045
-3.2952147	rend-toi	-0.12081045
-3.2952147	caché	-0.12081045
-3.2952147	capacité	-0.12081045
-3.2952147	connais	-0.12081045
-2.9106848	asimov	-0.33795154
-3.1790767	lois	-0.23566322
-3.2952147	préfères	-0.12081045
-3.2952147	pleine	-0.12081045
-3.2952147	forme	-0.12081045
-3.2952147	peut	-0.12081045
-3.2952147	se	-0.12081045
-3.1790767	marier	-0.12081045
-3.2952147	sachant	-0.12081045
-3.1790767	ceci	-0.23566322
-3.2952147	spécialement	-0.12081045
-3.2952147	contre	-0.12081045
-3.2952147	peu	-0.12081045
-3.2952147	vois-tu	-0.12081045
-3.1790767	plutôt	-0.12081045
-3.1790767	aujourd'	-0.23566322
-3.2952147	hui	-0.12081045
-3.2952147	servent	-0.12081045
-3.2952147	fonctionne	-0.12081045
-3.2952147	sûrement	-0.12081045
-3.2952147	beau-père	-0.12081045
-3.2952147	grand-mère	-0.12081045
-3.2952147	grand-père	-0.12081045
-3.1790767	conversation	-0.23566322
-3.2952147	potes	-0.12081045
-3.2952147	alors	-0.12081045
-3.2952147	noire	-0.12081045
-3.2952147	avais	-0.12081045
-3.2952147	suis-je	-0.12081045
-3.2952147	préfères-tu	-0.12081045
-3.2952147	albert	-0.12081045
-3.2952147	stéphan	-0.12081045
-3.2952147	hawkins	-0.12081045
-3.2952147	y	-0.12081045
-3.2952147	a-t-il	-0.12081045
-3.2952147	loi	-0.12081045
-3.1790767	exactement	-0.23566322
-3.1790767	âge	-0.19391206
-3.1790767	reformuler	-0.12081045
-3.1790767	répéter	-0.12081045
-3.2952147	s'	-0.12081045
-3.2952147	plaît	-0.12081045
-3.2952147	manges	-0.12081045
-3.2952147	après-demain	-0.12081045
-3.2952147	semaine	-0.12081045
-3.2952147	donner	-0.12081045

\2-grams:
-0.3921169	alfred </s>	0
-0.6729529	robot </s>	0
-0.72642696	petit </s>	0
-0.75717413	noir </s>	0
-0.33379838	blanc </s>	0
-0.88024414	toc </s>	0
-0.47262064	là </s>	0
-0.75717413	moment </s>	0
-0.47262064	habites </s>	0
-0.66677994	résides </s>	0
-0.22348289	aujourd'hui </s>	0
-0.75717413	sexe </s>	0
-0.5546831	ami </s>	0
-0.7224903	pas </s>	0
-0.8105712	marié </s>	0
-0.7264801	bien </s>	0
-0.75717413	garçon </s>	0
-1.1425256	une </s>	0
-0.66677994	fille </s>	0
-0.87353826	vincent </s>	0
-0.5339584	stéphanie </s>	0
-0.68995506	axel </s>	0
-0.75717413	dérange </s>	0
-0.95637864	vraiment </s>	0
-0.75717413	vois </s>	0
-0.44538802	stupide </s>	0
-0.5546831	bête </s>	0
-0.6453439	grand </s>	0
-0.30899137	géant </s>	0
-0.754023	fort </s>	0
-0.46110246	intelligent </s>	0
-0.8714659	cerveau </s>	0
-0.47262064	développé </s>	0
-0.29134554	faible </s>	0
-0.5339584	amoureux </s>	0
-0.47262064	prochain </s>	0
-0.6832271	yeux </s>	0
-0.44538802	bleu </s>	0
-0.44538802	caméras </s>	0
-1.0980662	la </s>	0
-0.47262064	vision </s>	0
-1.0041573	as-tu </s>	0
-0.4303466	choses </s>	0
-0.4303466	micros </s>	0
-0.47262064	microphones </s>	0
-0.5006087	haut-parleur </s>	0
-0.47262064	haut-parleurs </s>	0
-0.75717413	certain </s>	0
-0.7949122	sûr </s>	0
-0.55048287	raison </s>	0
-0.8105712	créateur </s>	0
-0.47262064	inventeur </s>	0
-0.66677994	botmaster </s>	0
-0.5546831	copain </s>	0
-0.44538802	pote </s>	0
-0.5339584	copine </s>	0
-0.44538802	soeur </s>	0
-0.5546831	mère </s>	0
-0.5546831	père </s>	0
-0.78252643	tout </s>	0
-0.47262064	saisir </s>	0
-0.6125855	chose </s>	0
-0.71614814	dire </s>	0
-0.33379838	camarade </s>	0
-0.75717413	amis </s>	0
-0.75717413	copains </s>	0
-0.66677994	copines </s>	0
-0.47262064	camarades </s>	0
-0.76327455	couleur </s>	0
-0.66677994	orange </s>	0
-0.47262064	rose </s>	0
-0.8997323	faire </s>	0
-0.62685114	quoi </s>	0
-0.44538802	humain </s>	0
-0.8105712	cuisine </s>	0
-0.6595432	nom </s>	0
-0.66677994	appelle </s>	0
-0.44538802	maintenant </s>	0
-0.47262064	humanoide </s>	0
-0.46110246	internet </s>	0
-0.66677994	donnée </s>	0
-0.5661714	wikipédia </s>	0
-0.5339584	madonna </s>	0
-0.30899137	newton </s>	0
-0.47262064	dion </s>	0
-0.66677994	appelles </s>	0
-0.66677994	age </s>	0
-0.8460746	sais </s>	0
-0.9423136	veux </s>	0
-0.66677994	rêves </s>	0
-0.63338304	préférée </s>	0
-0.5339584	livre </s>	0
-0.66677994	préféré </s>	0
-0.69649315	musique </s>	0
-0.47262064	préférées </s>	0
-0.84236217	prénom </s>	0
-0.66677994	préférés </s>	0
-0.69649315	loisirs </s>	0
-0.98882157	veux-tu </s>	0
-0.72642696	chanter </s>	0
-0.75717413	chantes </s>	0
-0.7614799	moi </s>	0
-0.41811642	jour </s>	0
-0.30899137	ici </s>	0
-0.50838083	manger </s>	0
-0.66677994	nourriture </s>	0
-0.84236217	capable </s>	0
-0.47262064	nourrir </s>	0
-0.6125855	faim </s>	0
-0.33379838	sommes-nous </s>	0
-0.66677994	sommes </s>	0
-0.8105712	mois </s>	0
-0.75717413	année </s>	0
-0.5339584	heure </s>	0
-0.8105712	est-il </s>	0
-0.47262064	ip </s>	0
-0.30899137	pouvais </s>	0
-0.47262064	futur </s>	0
-0.66677994	fabriqué </s>	0
-0.47262064	conçu </s>	0
-0.47262064	créé </s>	0
-0.89143825	parler </s>	0
-0.66677994	mort </s>	0
-0.47262064	service </s>	0
-0.30899137	vides </s>	0
-0.66677994	aliments </s>	0
-0.96846056	jouer </s>	0
-0.47656834	toi </s>	0
-0.66677994	deux </s>	0
-0.47262064	doucement </s>	0
-0.8105712	beau </s>	0
-0.6832271	temps </s>	0
-0.5302979	boire </s>	0
-0.47262064	alimenter </s>	0
-0.94536644	dormir </s>	0
-0.47262064	heures </s>	0
-0.47262064	mourir </s>	0
-0.87353826	vivre </s>	0
-0.5339584	analyser </s>	0
-0.47262064	traduire </s>	0
-0.47262064	dessiner </s>	0
-0.30899137	gentil </s>	0
-0.66677994	doué </s>	0
-0.47262064	mortel </s>	0
-0.47262064	violent </s>	0
-0.47262064	vulgaire </s>	0
-0.66677994	marcher </s>	0
-0.8956395	écouter </s>	0
-0.47262064	comparer </s>	0
-0.66677994	parlions </s>	0
-0.84236217	accord </s>	0
-0.47262064	camera </s>	0
-0.5006087	bouche </s>	0
-0.22348289	oreilles </s>	0
-0.5339584	capteurs </s>	0
-0.30899137	capacités </s>	0
-0.5973116	caméra </s>	0
-0.6629444	bras </s>	0
-0.5339584	mains </s>	0
-0.6595432	jambes </s>	0
-0.66677994	pieds </s>	0
-0.8105712	tête </s>	0
-0.66677994	cou </s>	0
-0.30899137	vocale </s>	0
-0.66677994	dialoguer </s>	0
-0.66677994	objet </s>	0
-0.47262064	personnage </s>	0
-0.9054467	météo </s>	0
-0.66677994	batterie </s>	0
-0.47262064	systèmes </s>	0
-0.66677994	consultes </s>	0
-0.47262064	vie </s>	0
-0.47262064	respires </s>	0
-0.66677994	eau </s>	0
-0.66677994	penses </s>	0
-0.66677994	seul </s>	0
-0.47262064	connectés </s>	0
-0.84236217	va </s>	0
-0.47262064	ballader </s>	0
-0.66677994	maison </s>	0
-0.75717413	sauter </s>	0
-0.47262064	foncer </s>	0
-0.47262064	distinguer </s>	0
-0.87353826	salon </s>	0
-0.8105712	couloir </s>	0
-0.75717413	chambre </s>	0
-0.47262064	bain </s>	0
-0.5973116	entrée </s>	0
-0.84236217	jeu </s>	0
-0.75717413	chifumi </s>	0
-0.66677994	couleurs </s>	0
-0.47262064	enfant </s>	0
-0.5978954	fait </s>	0
-0.30899137	parle </s>	0
-0.5973116	non </s>	0
-0.47262064	instant </s>	0
-0.8105712	cela </s>	0
-0.47262064	actuellement </s>	0
-0.8105712	oui </s>	0
-0.47262064	vas-tu </s>	0
-0.75717413	content </s>	0
-0.66677994	robots </s>	0
-0.47262064	coucher </s>	0
-0.47262064	vais </s>	0
-0.30899137	suivante </s>	0
-0.66677994	information </s>	0
-0.47262064	six </s>	0
-0.8105712	dix </s>	0
-0.47262064	seize </s>	0
-0.47262064	vingt </s>	0
-0.47262064	légumes </s>	0
-0.47262064	alcool </s>	0
-0.47262064	général </s>	0
-0.66677994	fruit </s>	0
-0.66677994	spectacles </s>	0
-0.47262064	musicaux </s>	0
-0.47262064	animaliers </s>	0
-0.47262064	combat </s>	0
-0.8714659	adore </s>	0
-0.66677994	découvertes </s>	0
-0.66677994	déplacer </s>	0
-0.6125855	merci </s>	0
-0.66677994	remercie </s>	0
-0.47262064	sportives </s>	0
-0.47262064	quantifier </s>	0
-0.47262064	entoure </s>	0
-0.75717413	ressentir </s>	0
-0.47262064	classifier </s>	0
-0.47262064	maths </s>	0
-0.8460746	sciences </s>	0
-0.47262064	physique </s>	0
-0.75717413	artificielle </s>	0
-0.5339584	pleurer </s>	0
-0.66677994	colère </s>	0
-0.47262064	désobéir </s>	0
-0.42527103	intéressant </s>	0
-0.66677994	cultivé </s>	0
-0.47262064	rigolo </s>	0
-0.66677994	dynamixels </s>	0
-0.66677994	confus </s>	0
-0.66677994	joyeux </s>	0
-0.75717413	triste </s>	0
-0.66677994	tristesse </s>	0
-0.66677994	peine </s>	0
-0.47262064	affamé </s>	0
-0.5546831	aussi </s>	0
-0.75717413	soif </s>	0
-0.47262064	look </s>	0
-0.47262064	émotions </s>	0
-0.5339584	dis </s>	0
-0.47262064	plaisante </s>	0
-0.66677994	sens-tu </s>	0
-0.47262064	soirée </s>	0
-0.8105712	entendre </s>	0
-0.47262064	poème </s>	0
-0.66677994	calins </s>	0
-0.44538802	amour </s>	0
-0.47262064	fatigué </s>	0
-0.8105712	fais-tu </s>	0
-0.47262064	entends-tu </s>	0
-0.47262064	environnement </s>	0
-0.47262064	envies </s>	0
-0.44538802	dehors </s>	0
-0.8105712	lacunes </s>	0
-0.75717413	ia </s>	0
-0.47262064	performante </s>	0
-0.47262064	importantes </s>	0
-0.75717413	télévision </s>	0
-0.66677994	jardin </s>	0
-0.47262064	paysage </s>	0
-0.66677994	nuages </s>	0
-0.47262064	fenêtre </s>	0
-0.8714659	d </s>	0
-0.47262064	audio </s>	0
-0.47262064	nouveautés </s>	0
-0.66677994	lentement </s>	0
-0.75717413	génial </s>	0
-0.66677994	enrichissant </s>	0
-0.8105712	grave </s>	0
-0.47262064	attention </s>	0
-0.66677994	impressionnant </s>	0
-0.47262064	fait-il </s>	0
-0.4303466	demain </s>	0
-0.66677994	frère </s>	0
-0.47262064	soeurs </s>	0
-0.47262064	cousin </s>	0
-0.47262064	tante </s>	0
-0.5339584	roues </s>	0
-0.75717413	doigts </s>	0
-0.75717413	souvent </s>	0
-0.66677994	télé </s>	0
-0.47262064	son </s>	0
-0.47262064	choisis </s>	0
-0.47262064	premier </s>	0
-0.47262064	souhaites </s>	0
-0.47262064	démonstration </s>	0
-0.47262064	faisais </s>	0
-0.75717413	plus </s>	0
-0.47262064	tablette </s>	0
-0.47262064	electroniques </s>	0
-0.66677994	électricité </s>	0
-0.66677994	recharger </s>	0
-0.47262064	recharges </s>	0
-0.47262064	alimentes </s>	0
-0.47262064	exploitation </s>	0
-0.47262064	laser </s>	0
-0.47262064	stéréo </s>	0
-0.47262064	antennes </s>	0
-0.66677994	sol </s>	0
-0.47262064	directionnelle </s>	0
-0.47262064	informatique </s>	0
-0.66677994	rouler </s>	0
-0.47262064	top </s>	0
-0.47262064	genoux </s>	0
-0.47262064	roulettes </s>	0
-0.66677994	recharge </s>	0
-0.47262064	distance </s>	0
-0.47262064	humains </s>	0
-0.30899137	maître </s>	0
-0.47262064	géniales </s>	0
-0.22348289	asimov </s>	0
-0.66677994	marier </s>	0
-0.47262064	hui </s>	0
-0.47262064	beau-père </s>	0
-0.47262064	grand-mère </s>	0
-0.47262064	grand-père </s>	0
-0.30899137	conversation </s>	0
-0.47262064	potes </s>	0
-0.47262064	noire </s>	0
-0.75717413	suis-je </s>	0
-0.47262064	hawkins </s>	0
-0.30899137	exactement </s>	0
-0.44538802	âge </s>	0
-0.66677994	reformuler </s>	0
-0.66677994	répéter </s>	0
-0.47262064	après-demain </s>	0
-0.47262064	semaine </s>	0
-1.672936	<s> qui	-0.64791167
-2.2986388	alfred qui	-0.07524167
-2.159676	et qui	-0.07524167
-1.2956152	toc qui	-0.07524167
-2.0437138	es qui	-0.07524167
-1.7907445	axel qui	-0.07524167
-1.8320216	dire qui	-0.07524167
-1.6580874	toi qui	-0.07524167
-0.907471	monde qui	-0.07524167
-1.1024064	<s> est	-1.6754516
-0.76479167	qui est	-0.09343831
-1.4352025	alfred est	-0.252903
-1.7342324	et est	-0.45796776
-1.6525375	ou est	-0.45796776
-1.1706542	où est	-0.07524167
-1.2609359	axel est	-0.10093592
-1.256767	n' est	-0.07524167
-1.3314273	copain est	-0.07524167
-0.95373386	quelle est	-0.18528262
-1.0052093	couleur est	-0.07524167
-1.0212259	quel est	-0.2142561
-1.3351972	nom est	-0.07524167
-1.7378844	comment est	-0.07524167
-0.98774207	qu' est	-0.10093592
-1.3820741	quand est	-0.07524167
-1.3868241	il est	-0.07524167
-1.5966641	toi est	-0.07524167
-1.3868241	temps est	-0.07524167
-1.1706542	tête est	-0.07524167
-0.14349516	c' est	-0.097832985
-1.1706542	cela est	-0.07524167
-1.175765	dis est	-0.07524167
-1.0567878	télévision est	-0.07524167
-0.37263125	ceci est	-0.07524167
-1.0923736	<s> alfred	-0.3145547
-1.6890879	est alfred	-0.07524167
-1.0418363	moment alfred	-0.07524167
-1.890943	que alfred	-0.07524167
-0.90461546	bien alfred	-0.55487776
-1.5479436	es-tu alfred	-0.07524167
-1.0418363	dérange alfred	-0.07524167
-0.66360134	raison alfred	-0.14257398
-0.8817714	botmaster alfred	-0.07524167
-1.4519373	couleur alfred	-0.07524167
-1.3251468	faire alfred	-0.14257398
-1.3957864	quoi alfred	-0.14257398
-1.3114525	nom alfred	-0.07524167
-0.8817714	appelle alfred	-0.07524167
-0.8817714	appelles alfred	-0.07524167
-0.8817714	age alfred	-0.07524167
-1.4032129	préférée alfred	-0.07524167
-1.3640041	loisirs alfred	-0.07524167
-1.5716771	moi alfred	-0.07524167
-1.1513189	est-il alfred	-0.07524167
-1.5589701	toi alfred	-0.07524167
-1.1513189	beau alfred	-0.07524167
-1.6268023	aime alfred	-0.07524167
-1.3114525	jambes alfred	-0.07524167
-1.3955007	météo alfred	-0.07524167
-0.8817714	bonjour alfred	-0.07524167
-0.8817714	salut alfred	-0.07524167
-0.8817714	bientôt alfred	-0.07524167
-0.8817714	revoir alfred	-0.07524167
-0.7555998	merci alfred	-0.14257398
-1.1513189	beaucoup alfred	-0.07524167
-1.3799989	intéressant alfred	-0.07524167
-1.0418363	super alfred	-0.07524167
-0.59738207	forme alfred	-0.07524167
-1.0418363	suis-je alfred	-0.07524167
-0.59738207	plaît alfred	-0.07524167
-2.1820316	est mon	-0.07524167
-2.23381	alfred mon	-0.07524167
-2.0015574	et mon	-0.07524167
-2.3319762	ou mon	-0.07524167
-1.0722725	sexe mon	-0.07524167
-1.3581232	ami mon	-0.07524167
-2.1632307	pas mon	-0.07524167
-1.9820741	es mon	-0.07524167
-1.4769566	même mon	-0.07524167
-1.5560492	être mon	-0.07524167
-1.5210161	couleur mon	-0.07524167
-1.470936	préférée mon	-0.07524167
-0.90259564	hello mon	-0.07524167
-1.1938167	roues mon	-0.07524167
-1.2704781	mon robot	-0.333029
-0.9766724	petit robot	-0.07524167
-1.1578927	un robot	-0.32265213
-0.61302555	autre robot	-0.07524167
-2.6856604	<s> ce	-0.118950814
-0.9420059	est ce	-0.42446417
-2.422577	et ce	-0.07524167
-1.3821387	en ce	-0.333029
-1.8041369	pas ce	-0.14257398
-1.7603704	a ce	-0.07524167
-1.8118672	dire ce	-0.07524167
-1.924443	quoi ce	-0.07524167
-0.91148144	sais-tu ce	-0.118950814
-0.6090615	expliques-moi ce	-0.07524167
-0.9045392	expliquer ce	-0.07524167
-0.6090615	redis-moi ce	-0.07524167
-1.818321	ce petit	-0.07524167
-2.093045	le petit	-0.07524167
-2.299056	pas petit	-0.07524167
-2.0853882	es petit	-0.07524167
-1.8663527	si petit	-0.07524167
-1.7551079	tout petit	-0.07524167
-1.5597614	robot noir	-0.07524167
-2.6167634	ou noir	-0.07524167
-2.198328	es-tu noir	-0.07524167
-2.0594392	<s> et	-0.118950814
-1.1651068	alfred et	-0.0965466
-1.2107764	petit et	-0.07524167
-0.9346394	noir et	-0.07524167
-0.9346394	moment et	-0.07524167
-1.1403043	ami et	-0.07524167
-1.3745857	pas et	-0.07524167
-1.0177064	marié et	-0.07524167
-0.9346394	garçon et	-0.07524167
-1.0937603	vincent et	-0.07524167
-1.0366658	stéphanie et	-0.07524167
-1.0118035	axel et	-0.07524167
-0.55574834	minuscule et	-0.07524167
-1.1364716	grand et	-0.07524167
-0.5100165	énorme et	-0.07524167
-1.2350435	fort et	-0.07524167
-1.2313131	intelligent et	-0.07524167
-1.120511	cerveau et	-0.07524167
-0.55574834	forces et	-0.07524167
-1.0366658	amoureux et	-0.07524167
-0.8164307	aimer et	-0.07524167
-1.1697752	yeux et	-0.07524167
-1.0979304	haut-parleur et	-0.07524167
-0.55574834	maitre et	-0.07524167
-1.0177064	créateur et	-0.07524167
-1.1403043	copain et	-0.07524167
-0.9555647	pote et	-0.07524167
-1.0366658	copine et	-0.07524167
-1.1403043	mère et	-0.07524167
-0.80489194	cousine et	-0.07524167
-1.1403043	père et	-0.07524167
-0.70729625	comprendre et	-0.07524167
-1.3094407	tout et	-0.07524167
-1.177843	faire et	-0.14257398
-1.4214607	quoi et	-0.07524167
-1.3426634	sur et	-0.07524167
-1.2313131	internet et	-0.07524167
-0.9555647	recherche et	-0.07524167
-1.1570237	wikipédia et	-0.07524167
-0.80489194	einstein et	-0.07524167
-1.1998429	préférée et	-0.07524167
-1.1850877	musique et	-0.07524167
-0.82315147	loisirs et	-0.07524167
-1.2107764	chanter et	-0.07524167
-1.2072512	jour et	-0.07524167
-1.0177064	trouver et	-0.07524167
-1.0317981	manger et	-0.07524167
-1.0177064	mois et	-0.07524167
-0.55574834	né et	-0.07524167
-1.2072512	jouer et	-0.07524167
-1.3316636	toi et	-0.07524167
-0.80489194	danser et	-0.07524167
-1.0177064	beau et	-0.07524167
-0.96263343	boire et	-0.118950814
-0.8668092	dormir et	-0.07524167
-1.0937603	vivre et	-0.07524167
-1.0366658	analyser et	-0.07524167
-0.55574834	doux et	-0.07524167
-0.55574834	attentif et	-0.07524167
-0.9346394	rire et	-0.07524167
-1.1364716	écouter et	-0.07524167
-0.55574834	calmement et	-0.07524167
-0.80489194	calculer et	-0.07524167
-0.55574834	rapidement et	-0.07524167
-0.55574834	discutons et	-0.07524167
-1.0979304	bouche et	-0.07524167
-0.6516564	bras et	-0.07524171
-1.0366658	mains et	-0.07524167
-0.77102816	jambes et	-0.07524167
-0.80489194	bavarder et	-0.07524167
-1.182763	météo et	-0.07524167
-0.80489194	système et	-0.07524167
-0.80489194	batterie et	-0.07524167
-0.80489194	consultes et	-0.07524167
-0.55574834	recherches et	-0.07524167
-0.55574834	existes-tu et	-0.07524167
-0.9346394	penser et	-0.07524167
-0.80489194	seul et	-0.07524167
-0.80489194	promènes-toi et	-0.07524167
-0.80489194	promener et	-0.07524167
-0.80489194	maison et	-0.07524167
-0.9346394	sauter et	-0.07524167
-1.0937603	salon et	-0.07524167
-1.0177064	couloir et	-0.07524167
-1.1733211	fait et	-0.07524167
-0.9346394	content et	-0.07524167
-0.55574834	fruits et	-0.07524167
-0.55574834	gâteaux et	-0.07524167
-0.55574834	humoristiques et	-0.07524167
-0.55574834	sports et	-0.07524167
-0.9346394	connaitre et	-0.07524167
-1.0177064	savoir et	-0.07524167
-0.55574834	sentir et	-0.07524167
-1.0764291	sciences et	-0.07524167
-0.55574834	biologie et	-0.07524167
-1.0366658	pleurer et	-0.07524167
-0.839623	intéressant et	-0.07524167
-0.80489194	cultivé et	-0.07524167
-0.55574834	taille et	-0.07524167
-0.80489194	confus et	-0.07524167
-1.0177064	désolé et	-0.07524167
-0.35078314	ravi et	-0.07524167
-0.80489194	maussade et	-0.07524167
-0.55574834	fou et	-0.07524167
-0.55574834	détéste et	-0.07524167
-0.55574834	discuter et	-0.07524167
-1.0177064	entendre et	-0.07524167
-1.0366658	baiser et	-0.07524167
-0.80489194	calins et	-0.07524167
-0.55574834	sommeil et	-0.07524167
-0.55574834	visages et	-0.07524167
-0.55574834	besoins et	-0.07524167
-0.55574834	développée et	-0.07524167
-0.9346394	super et	-0.07524167
-0.80489194	parfait et	-0.07524167
-0.9346394	génial et	-0.07524167
-0.80489194	enrichissant et	-0.07524167
-0.55574834	climat et	-0.07524167
-1.0412384	demain et	-0.07524167
-0.55574834	frères et	-0.07524167
-0.55574834	oeil et	-0.07524167
-0.55574834	oreille et	-0.07524167
-0.55574834	robotique et	-0.07524167
-0.80489194	nez et	-0.07524167
-0.80489194	sol et	-0.07524167
-0.80489194	recharge et	-0.07524167
-0.9346394	suis-je et	-0.07524167
-2.701097	et blanc	-0.07524167
-2.1441996	ou blanc	-0.14257398
-1.6806474	encore blanc	-0.07524167
-2.9402018	<s> toc	-0.14257398
-0.6323151	toc toc	-0.10760424
-2.3589587	la toc	-0.07524167
-2.3892407	est là	-0.07524167
-2.003342	<s> ou	-0.24660651
-1.249	petit ou	-0.07524167
-0.9571332	noir ou	-0.07524167
-0.9571332	sexe ou	-0.07524167
-1.0450939	marié ou	-0.07524167
-1.5072911	bien ou	-0.07524167
-1.4858496	un ou	-0.14257398
-0.9571332	garçon ou	-0.07524167
-1.4294527	une ou	-0.07524167
-0.82146394	fille ou	-0.07524167
-0.711735	vincent ou	-0.07524167
-1.0618889	stéphanie ou	-0.07524167
-1.4158264	axel ou	-0.07524167
-0.9754528	stupide ou	-0.07524167
-1.1733637	bête ou	-0.07524167
-0.80895454	fort ou	-0.07524167
-1.2732825	faible ou	-0.07524167
-1.0618889	amoureux ou	-0.07524167
-1.2064503	yeux ou	-0.07524167
-1.1234336	voir ou	-0.07524167
-1.065927	micros ou	-0.07524167
-0.5650079	micro ou	-0.07524167
-1.1271545	haut-parleur ou	-0.07524167
-0.9571332	certain ou	-0.07524167
-1.1733637	copain ou	-0.07524167
-1.1733637	mère ou	-0.07524167
-0.71789557	chose ou	-0.07524167
-0.9571332	truc ou	-0.07524167
-0.9571332	copains ou	-0.07524167
-0.82146394	copines ou	-0.07524167
-0.3551923	rouge ou	-0.07524167
-0.82146394	vert ou	-0.07524167
-0.82146394	orange ou	-0.07524167
-0.5650079	violet ou	-0.07524167
-1.0450939	cuisine ou	-0.07524167
-0.783928	nom ou	-0.14257398
-1.267658	internet ou	-0.07524167
-0.78534317	wikipédia ou	-0.07524167
-1.0618889	madonna ou	-0.07524167
-0.82146394	einstein ou	-0.07524167
-0.5650079	shakira ou	-0.07524167
-1.303951	veux ou	-0.07524167
-0.5650079	rêver ou	-0.07524167
-1.239034	préférée ou	-0.07524167
-1.0618889	livre ou	-0.07524167
-0.82146394	préféré ou	-0.07524167
-1.2203193	musique ou	-0.07524167
-1.249	chanter ou	-0.07524167
-1.0512816	manger ou	-0.07524167
-0.82146394	fabriqué ou	-0.07524167
-1.4805554	parler ou	-0.07524167
-0.5650079	décédé ou	-0.07524167
-0.82146394	deux ou	-0.07524167
-0.82146394	danser ou	-0.07524167
-0.9801474	boire ou	-0.118950814
-0.3551923	souffrir ou	-0.14257398
-0.711735	vivre ou	-0.14257398
-0.5650079	méchant ou	-0.07524167
-0.82146394	doué ou	-0.07524167
-0.5650079	dangereux ou	-0.07524167
-0.5650079	sauvage ou	-0.07524167
-0.9571332	rire ou	-0.07524167
-0.82146394	marcher ou	-0.07524167
-1.1699139	écouter ou	-0.07524167
-1.1234336	caméra ou	-0.07524167
-1.1848062	jambes ou	-0.07524167
-0.82146394	pieds ou	-0.07524167
-1.0450939	tête ou	-0.07524167
-0.82146394	bavarder ou	-0.07524167
-0.5650079	mot ou	-0.07524167
-0.82146394	objets ou	-0.07524167
-0.82146394	courir ou	-0.07524167
-1.1234336	salon ou	-0.07524167
-1.0450939	couloir ou	-0.07524167
-0.9571332	chambre ou	-0.07524167
-0.9571332	chifumi ou	-0.07524167
-0.82146394	couleurs ou	-0.07524167
-1.0450939	oui ou	-0.07524167
-0.5650079	quatre ou	-0.07524167
-0.3551923	huit ou	-0.07524167
-0.5650079	douze ou	-0.07524167
-0.5650079	quatorze ou	-0.07524167
-0.5650079	dramatiques ou	-0.07524167
-0.5650079	science ou	-0.07524167
-0.5650079	blond ou	-0.07524167
-0.5650079	gris ou	-0.07524167
-0.5650079	géographie ou	-0.07524167
-1.0450939	désolé ou	-0.07524167
-0.82146394	maussade ou	-0.07524167
-0.5650079	compassion ou	-0.07524167
-0.6281904	baiser ou	-0.07524167
-0.82146394	jardin ou	-0.07524167
-0.82146394	ciel ou	-0.07524167
-0.5650079	sons ou	-0.07524167
-1.0450939	grave ou	-0.07524167
-0.82146394	frère ou	-0.07524167
-0.5650079	parents ou	-0.07524167
-0.5650079	oncle ou	-0.07524167
-0.5650079	herbe ou	-0.07524167
-0.5650079	pelouse ou	-0.07524167
-0.82146394	télé ou	-0.07524167
-0.5650079	portable ou	-0.07524167
-0.5650079	tridimensionnelle ou	-0.07524167
-0.5650079	antenne ou	-0.07524167
-0.82146394	reformuler ou	-0.07524167
-0.82146394	répéter ou	-0.07524167
-2.6532054	ou habites-tu	-0.07524167
-2.122864	<s> en	-0.13229203
-1.6249406	qui en	-0.07524167
-2.137039	alfred en	-0.07524167
-2.1878688	ou en	-0.07524167
-0.6036694	habites-tu en	-0.07524167
-2.1633744	tu en	-0.07524167
-1.8892926	es en	-0.07524167
-1.071621	bien en	-0.10760424
-1.7450674	dire en	-0.07524167
-1.2611725	m' en	-0.07524167
-1.6877574	suis en	-0.07524167
-1.7300239	manger en	-0.07524167
-0.7629773	faim en	-0.14257398
-1.6590466	boire en	-0.07524167
-1.3350937	on en	-0.07524167
-0.6036694	n en	-0.07524167
-0.6036694	sucreries en	-0.07524167
-0.89395565	découvertes en	-0.07524167
-1.1742641	beaucoup en	-0.07524167
-1.1742641	savoir en	-0.07524167
-1.2611725	sciences en	-0.07524167
-0.3730708	mettre en	-0.14257398
-1.2611725	air en	-0.07524167
-1.8380646	ce moment	-0.07524167
-1.8351313	<s> que	-0.23097615
-2.1669624	alfred que	-0.07524167
-0.43672144	ce que	-0.27960226
-1.952453	et que	-0.07524167
-1.3424196	dis-moi que	-0.07524167
-1.063758	vois que	-0.07524167
-1.2678659	trouve que	-0.07524167
-1.4597638	même que	-0.07524167
-0.6051333	constate que	-0.07524167
-1.5646609	pour que	-0.07524167
-1.1797358	rien que	-0.07524167
-1.400851	sais-tu que	-0.07524167
-1.5911366	veux que	-0.07524167
-1.7301967	veux-tu que	-0.07524167
-1.6473447	moi que	-0.07524167
-1.0679865	pense que	-0.07524167
-0.37373102	espère que	-0.07524167
-0.6051333	parce que	-0.07524167
-1.1838775	dis que	-0.07524167
-0.6051333	sachant que	-0.07524167
-0.9382852	<s> tu	-0.64882946
-2.1181772	alfred tu	-0.07524167
-1.1626973	et tu	-0.18561368
-2.161437	ou tu	-0.07524167
-0.6803807	que tu	-0.18085657
-2.0267386	pas tu	-0.07524167
-1.8508073	bien tu	-0.07524167
-0.36312413	si tu	-0.17672913
-0.6026961	nul tu	-0.07524167
-0.45526844	car tu	-0.18528262
-1.2617517	combien tu	-0.07524167
-1.5537046	mais tu	-0.07524167
-1.0567878	aimerais tu	-0.07524167
-1.8286133	quoi tu	-0.07524167
-1.0620315	humain tu	-0.07524167
-0.764525	comment tu	-0.118950814
-0.89205873	sinon tu	-0.07524167
-0.89205873	fais tu	-0.07524167
-1.3820741	quand tu	-0.07524167
-1.0212259	comme tu	-0.07524167
-1.325413	adore tu	-0.07524167
-1.3314273	aussi tu	-0.07524167
-0.6026961	lorsque tu	-0.07524167
-1.1706542	grave tu	-0.07524167
-0.6026961	contre tu	-0.07524167
-2.5253625	tu habites	-0.07524167
-2.014785	tu résides	-0.07524167
-2.8121605	<s> où	-0.118950814
-0.9133946	résides où	-0.07524167
-1.4522449	sais-tu où	-0.07524167
-1.2101429	où aujourd'hui	-0.07524167
-1.9244562	d' aujourd'hui	-0.07524167
-1.9114281	faire aujourd'hui	-0.07524167
-1.0868454	date aujourd'hui	-0.07524167
-1.706681	<s> aimes-tu	-0.1520388
-1.6859058	toi aimes-tu	-0.07524167
-2.754437	<s> le	-0.07524167
-2.0418878	est le	-0.07524167
-1.9260288	ou le	-0.14257398
-1.8506918	tu le	-0.07524167
-1.6332806	aimes-tu le	-0.07524167
-1.3791592	aimes le	-0.07524167
-1.2984849	ne le	-0.07524167
-2.0013175	je le	-0.07524167
-1.6341245	peux-tu le	-0.07524167
-1.7284685	as-tu le	-0.07524167
-1.6425248	tout le	-0.07524167
-1.8220483	quoi le	-0.07524167
-1.1688604	cuisine le	-0.07524167
-1.6190112	sur le	-0.07524167
-0.72897637	dans le	-0.44035277
-1.3960266	jour le	-0.07524167
-1.0554072	date le	-0.07524167
-1.1741606	analyser le	-0.07524167
-0.7358872	vers le	-0.24660651
-1.2597455	regarder le	-0.07524167
-1.1688604	beaucoup le	-0.07524167
-1.3290799	aussi le	-0.07524167
-1.0608503	dehors le	-0.07524167
-0.8911134	reconnaitre le	-0.07524167
-1.0554072	souvent le	-0.07524167
-0.60221034	choisir le	-0.07524167
-1.6269487	le sexe	-0.07524167
-1.0049609	mon ami	-0.21108153
-1.9339347	un ami	-0.14257398
-1.5860091	ton ami	-0.118950814
-2.014785	tu aimes	-0.0911216
-1.7664701	est pas	-0.07524167
-2.2700436	et pas	-0.07524167
-1.9732444	ou pas	-0.14257398
-1.5436871	es pas	-0.07524167
-1.063758	dérange pas	-0.07524167
-1.063758	vois pas	-0.07524167
-1.6691365	as pas	-0.07524167
-1.2141645	peux pas	-0.07524167
-0.95707077	mais pas	-0.07524167
-0.6051333	saisi pas	-0.07524167
-0.6051333	comprends pas	-0.07524167
-0.89681655	saisis pas	-0.07524167
-1.7058668	suis pas	-0.07524167
-0.54705834	pense pas	-0.07524167
-1.2646092	aime pas	-0.07524171
-1.0079556	ai pas	-0.10760424
-0.89681655	bois pas	-0.07524167
-0.6051333	conprends pas	-0.07524167
-0.89681655	sembles pas	-0.07524167
-0.6051333	hais pas	-0.07524167
-1.0355022	tu es	-0.13438404
-1.9884678	l' es	-0.07524167
-1.3078761	n' es	-0.07524167
-2.1402428	es marié	-0.07524167
-1.6910619	es-tu marié	-0.07524167
-2.142534	est bien	-0.07524167
-2.3211734	et bien	-0.07524167
-1.5432063	ou bien	-0.10093592
-2.1215568	pas bien	-0.07524167
-1.7247645	suis bien	-0.07524167
-1.605573	veux bien	-0.07524167
-1.7491524	veux-tu bien	-0.07524167
-1.1161963	très bien	-0.07524171
-1.730551	aime bien	-0.07524167
-0.67075545	va bien	-0.07524167
-1.0679945	vas bien	-0.07524167
-0.89969647	remercie bien	-0.07524167
-0.89969647	sens-tu bien	-0.07524167
-0.89969647	assez bien	-0.07524167
-0.6066022	sens bien	-0.07524167
-0.6066022	parfaitement bien	-0.07524167
-1.2746639	air bien	-0.07524167
-3.2641797	<s> ne	-0.07524167
-1.3226012	tu ne	-0.14490367
-0.9467646	je ne	-0.22020516
-1.2081788	cela ne	-0.07524167
-0.91141105	scientifique ne	-0.07524167
-1.6494684	est l'	-0.118950814
-2.0310953	et l'	-0.07524167
-2.2160141	ou l'	-0.07524167
-2.0715652	pas l'	-0.07524167
-1.7504104	ne l'	-0.07524167
-1.3399639	dis-moi l'	-0.07524167
-1.6636821	as l'	-0.07524167
-2.1721375	de l'	-0.07524167
-1.5604168	pour l'	-0.07524167
-1.7031372	a l'	-0.07524167
-1.7564733	dire l'	-0.07524167
-1.2244061	faire l'	-0.333029
-1.5651188	à l'	-0.07524167
-1.498623	dans l'	-0.07524167
-1.6422089	moi l'	-0.07524167
-1.3399639	on l'	-0.07524167
-1.1595905	comme l'	-0.07524167
-1.6381516	vers l'	-0.07524167
-0.6046448	mémorise l'	-0.07524167
-0.8958608	nuages l'	-0.07524167
-0.6046448	donner l'	-0.07524167
-1.3533416	<s> es-tu	-0.23256053
-1.175493	qui es-tu	-0.07524167
-2.2715354	alfred es-tu	-0.07524167
-2.0283618	et es-tu	-0.07524167
-1.5172021	en es-tu	-0.07524167
-1.1965771	où es-tu	-0.07524167
-1.6096394	mais es-tu	-0.07524167
-1.5313483	couleur es-tu	-0.07524167
-1.9327704	quoi es-tu	-0.07524167
-1.6428148	qu' es-tu	-0.07524167
-1.4250805	quand es-tu	-0.07524167
-2.193415	pas avec	-0.07524167
-1.1946733	marié avec	-0.07524167
-0.43824267	parler avec	-0.41520151
-0.5066061	jouer avec	-0.252903
-0.6090615	parier avec	-0.07524167
-0.6732751	accord avec	-0.14257398
-0.9045392	dialoguer avec	-0.07524167
-0.37549645	converser avec	-0.07524167
-0.6090615	plaisanter avec	-0.07524167
-1.1946733	lacunes avec	-0.07524167
-1.0751483	doigts avec	-0.07524167
-0.6090615	déplaces avec	-0.07524167
-2.5615325	<s> un	-0.07524167
-1.6591349	est un	-0.118950814
-1.6673417	ce un	-0.07524167
-2.0025215	et un	-0.07524167
-1.4695293	ou un	-0.07524171
-1.8477528	que un	-0.07524167
-1.5539279	pas un	-0.07524167
-1.7347274	es un	-0.07524167
-1.7477226	bien un	-0.07524167
-1.5232104	es-tu un	-0.07524167
-1.6345336	avec un	-0.07524167
-1.5002463	encore un	-0.07524167
-1.7141169	si un	-0.07524167
-1.5002463	vraiment un	-0.07524167
-1.5583178	as un	-0.07524167
-1.2815043	cerveau un	-0.07524167
-1.3397775	aimer un	-0.07524167
-1.9458959	de un	-0.07524167
-1.4762161	pour un	-0.07524167
-1.6367763	as-tu un	-0.07524167
-1.6576222	d' un	-0.07524167
-1.1477545	copine un	-0.07524167
-0.87534964	cousine un	-0.07524167
-1.5654831	tout un	-0.07524167
-1.5885876	a un	-0.07524167
-1.7233878	quoi un	-0.07524167
-1.6505512	comment un	-0.07524167
-1.5831764	suis un	-0.07524167
-1.5145445	qu' un	-0.07524167
-1.1394484	est-il un	-0.07524167
-0.87534964	mort un	-0.07524167
-1.2288792	bouche un	-0.07524167
-0.87534964	cou un	-0.07524167
-0.87534964	objet un	-0.07524167
-1.1280507	comme un	-0.07524167
-0.87534964	était un	-0.07524167
-1.1394484	font un	-0.07524167
-0.59403384	raconter un	-0.07524167
-1.2815043	d un	-0.07524167
-0.87534964	racontes-moi un	-0.07524167
-1.0325828	plus un	-0.07524167
-0.87534964	est-elle un	-0.07524167
-0.59403384	ordinateur un	-0.07524167
-1.9412724	un autre	-0.14257398
-1.0837897	un garçon	-0.27703556
-2.6372073	<s> une	-0.07524167
-1.7436988	et une	-0.10093592
-1.3386642	ou une	-0.07524167
-1.9847088	que une	-0.07524167
-1.8892926	es une	-0.07524167
-1.9556427	es-tu une	-0.07524167
-1.2084267	as une	-0.07524167
-1.3923807	yeux une	-0.07524167
-1.7468688	as-tu une	-0.07524171
-1.2317683	d' une	-0.07524167
-1.5205075	être une	-0.07524167
-1.3361607	père une	-0.07524167
-1.8420488	quoi une	-0.07524167
-1.1234674	qu' une	-0.14257398
-1.6306398	sur une	-0.07524167
-1.4514159	internet une	-0.07524167
-1.4452891	chanter une	-0.07524167
-1.6321162	moi une	-0.07524167
-0.7629773	avoir une	-0.07524167
-1.3305775	d une	-0.07524167
-0.6036694	refais-moi une	-0.07524167
-1.0595624	plus une	-0.07524167
-0.89395565	est-elle une	-0.07524167
-1.2139447	une fille	-0.349813
-2.347845	est vincent	-0.07524167
-2.1155727	es vincent	-0.07524167
-2.1823695	es-tu vincent	-0.07524167
-1.8177406	suis vincent	-0.07524167
-2.347845	est stéphanie	-0.07524167
-2.6597493	et stéphanie	-0.07524167
-2.58164	ou stéphanie	-0.07524167
-1.6750919	encore stéphanie	-0.07524167
-2.1987965	et encore	-0.14257398
-1.3727485	ou encore	-0.07524167
-1.9951564	bien encore	-0.07524167
-2.152111	es-tu encore	-0.07524167
-0.6120311	respires-tu encore	-0.07524167
-0.6120311	réfléchis-tu encore	-0.07524167
-2.1575842	<s> axel	-0.35720956
-2.1960382	est axel	-0.07524167
-1.9937221	es axel	-0.07524167
-1.7566228	avec axel	-0.07524167
-1.6280534	encore axel	-0.07524167
-1.421282	aimer axel	-0.07524167
-1.6011939	mais axel	-0.07524167
-1.598678	à axel	-0.07524167
-1.633587	qu' axel	-0.07524167
-0.9668145	connais-tu axel	-0.14257398
-1.1927776	trouver axel	-0.07524167
-0.6085685	adores axel	-0.07524167
-1.073708	connais axel	-0.07524167
-1.1251644	<s> je	-0.5384853
-1.6461028	qui je	-0.07524167
-2.188122	alfred je	-0.07524167
-1.0972261	et je	-0.3198498
-1.2410696	que je	-0.0965466
-1.1834223	où je	-0.07524167
-1.276061	vincent je	-0.07524167
-1.3301497	si je	-0.14257398
-0.7379587	car je	-0.45796776
-1.095162	mais je	-0.07524167
-1.0665777	amis je	-0.07524167
-1.1862073	comment je	-0.333029
-1.6578021	moi je	-0.07524167
-1.4030452	quand je	-0.07524167
-1.276061	non je	-0.07524167
-1.1834223	oui je	-0.07524167
-0.8987344	monde je	-0.07524167
-0.606112	moi-aussi je	-0.07524167
-2.949508	<s> te	-0.07524167
-2.3589432	et te	-0.07524167
-1.8034987	tu te	-0.0965466
-1.6948096	aimes-tu te	-0.07524167
-1.4123523	aimes te	-0.07524167
-1.3224258	ne te	-0.10760424
-1.5538323	je te	-0.11243081
-1.6974856	peux te	-0.07524167
-2.069739	peux-tu te	-0.07524167
-1.6008998	de te	-0.10760424
-1.0970349	pour te	-0.07524167
-1.7952529	comment te	-0.07524167
-0.9087184	il te	-0.07524167
-1.7430654	aime te	-0.07524167
-1.1921443	va te	-0.07524167
-1.6025099	te dérange	-0.07524167
-2.952074	<s> dis-moi	-0.07524167
-2.401231	alfred dis-moi	-0.07524167
-2.9724917	<s> si	-0.07524167
-2.23381	alfred si	-0.07524167
-2.3791358	et si	-0.07524167
-2.3319762	ou si	-0.07524167
-1.9284536	bien si	-0.07524167
-1.1344384	encore si	-0.14257398
-0.8445711	dis-moi si	-0.07524167
-0.6080761	demande si	-0.07524167
-0.56325436	même si	-0.10760424
-1.4531287	quoi si	-0.07524167
-1.2815701	sais si	-0.07524167
-1.470936	préférée si	-0.07524167
-0.90259564	vivant si	-0.07524167
-1.2815701	air si	-0.07524167
-2.2737725	est vraiment	-0.07524167
-1.7019892	pas vraiment	-0.07524167
-2.0571659	es vraiment	-0.07524167
-2.1238244	es-tu vraiment	-0.07524167
-1.7869568	suis vraiment	-0.07524167
-1.7899442	aime vraiment	-0.07524167
-1.5387454	ai vraiment	-0.07524167
-1.2957209	air vraiment	-0.07524167
-1.6860228	vraiment nul	-0.07524167
-2.5003276	tu vois	-0.07524167
-1.8744552	ne vois	-0.07524167
-2.243339	je vois	-0.07524167
-2.1473815	et me	-0.07524167
-2.415464	ou me	-0.07524167
-1.8219292	ne me	-0.07524167
-1.7003697	je me	-0.14257398
-1.7181921	peux-tu me	-0.0965466
-1.7741823	a me	-0.07524167
-0.966223	à me	-0.333029
-1.7760261	aime me	-0.07524167
-1.1984893	cela me	-0.07524167
-0.6100491	pars me	-0.07524167
-1.7809889	me demande	-0.07524167
-2.63677	ou stupide	-0.07524167
-2.1402428	es stupide	-0.07524167
-2.6532054	ou simplement	-0.07524167
-0.614	simplement ridicule	-0.07524167
-1.9862365	bien voire	-0.07524167
-0.6115348	ridicule voire	-0.07524167
-1.2042769	créateur voire	-0.07524167
-1.082422	sauter voire	-0.07524167
-0.6115348	chatain voire	-0.07524167
-1.2042769	navré voire	-0.07524167
-1.2057074	roues voire	-0.07524167
-2.5872674	et bête	-0.07524167
-2.299056	pas bête	-0.07524167
-2.0853882	es bête	-0.07524167
-1.6641898	vraiment bête	-0.07524167
-1.4415339	voire bête	-0.07524167
-0.6120311	peu bête	-0.07524167
-2.701097	et trouve	-0.07524167
-1.7295702	je trouve	-0.07524167
-2.1124773	te trouve	-0.07524167
-1.5129508	petit minuscule	-0.07524167
-1.9105481	mon grand	-0.07524167
-2.518915	ou grand	-0.07524167
-2.299056	pas grand	-0.07524167
-1.9951564	bien grand	-0.07524167
-1.0851083	énorme grand	-0.07524167
-1.5479538	ma grand	-0.07524167
-1.8332124	ce n'	-0.07524167
-1.6066917	tu n'	-0.24660651
-1.7295702	je n'	-0.118950814
-1.5276	en même	-0.14257398
-2.0571659	es même	-0.07524167
-1.4348775	voire même	-0.07524167
-1.2957209	trouve même	-0.07524167
-1.5407102	fort même	-0.07524167
-1.2973572	voir même	-0.07524167
-0.611039	parfois même	-0.07524167
-0.9084527	scientifique même	-0.07524167
-2.3685207	est énorme	-0.07524167
-2.1314898	es énorme	-0.07524167
-0.9133946	impressionnant énorme	-0.07524167
-2.724925	et géant	-0.07524167
-0.9139262	spécialement géant	-0.07524167
-2.5551097	et fort	-0.07524167
-2.0710478	es fort	-0.07524167
-2.1377375	es-tu fort	-0.07524167
-1.5858554	être fort	-0.07524167
-0.9736341	chanter fort	-0.14257398
-1.1297425	très fort	-0.252903
-0.9094366	plutôt fort	-0.07524167
-1.5482308	robot intelligent	-0.07524167
-2.077076	et intelligent	-0.07524167
-2.0853882	es intelligent	-0.07524167
-2.152111	es-tu intelligent	-0.07524167
-1.5009934	même intelligent	-0.07524167
-1.2708317	très intelligent	-0.14257398
-1.3631585	bête car	-0.07524167
-1.526049	fort car	-0.07524167
-1.4828422	intelligent car	-0.07524167
-1.6907755	moi car	-0.07524167
-0.9045392	nourriture car	-0.07524167
-1.2912041	faim car	-0.07524167
-0.9045392	eau car	-0.07524167
-0.9045392	moche car	-0.07524167
-1.1946733	désolé car	-0.07524167
-0.6090615	assoiffé car	-0.07524167
-1.0751483	soif car	-0.07524167
-0.6090615	avis car	-0.07524167
-2.0628464	en as	-0.07524167
-1.23327	tu as	-0.13556574
-1.3078761	n' as	-0.07524167
-1.5358028	un cerveau	-0.07524167
-1.3887391	cerveau développé	-0.07524167
-2.518915	ou faible	-0.07524167
-2.0853882	es faible	-0.07524167
-1.5902853	être faible	-0.07524167
-1.2062235	est-il faible	-0.07524167
-0.6120311	vois-tu faible	-0.07524167
-0.9104227	plutôt faible	-0.07524167
-1.4567571	faible sans	-0.07524167
-0.614	sans forces	-0.07524167
-2.1314898	es amoureux	-0.07524167
-2.198328	es-tu amoureux	-0.07524167
-0.9321349	être amoureux	-0.333029
-1.4418197	tu peux	-0.12520777
-2.120685	le peux	-0.07524167
-1.8665513	ne peux	-0.07524167
-2.2294781	je peux	-0.07524167
-1.7672492	peux aimer	-0.07524167
-1.7544475	peux-tu aimer	-0.07524167
-1.9244562	d' aimer	-0.07524167
-1.3054178	m' aimer	-0.07524167
-1.0573709	<s> peux-tu	-0.33695313
-2.327547	alfred peux-tu	-0.07524171
-2.1853611	et peux-tu	-0.07524167
-1.9750051	ou peux-tu	-0.07524167
-2.137503	que peux-tu	-0.07524167
-1.8473166	comment peux-tu	-0.07524171
-0.6115348	caché peux-tu	-0.07524167
-2.7211695	<s> ton	-0.14257398
-1.1659222	est ton	-0.110669516
-2.3396478	et ton	-0.07524167
-2.1350086	pas ton	-0.07524167
-1.9596758	es ton	-0.07524167
-1.7427491	avec ton	-0.07524167
-1.7497734	axel ton	-0.07524167
-1.412408	aimer ton	-0.07524167
-1.5972929	de ton	-0.0965466
-1.7339983	a ton	-0.07524167
-1.7863718	dire ton	-0.07524167
-1.8926438	quoi ton	-0.07524167
-1.731251	suis ton	-0.07524167
-1.6685175	moi ton	-0.07524167
-1.7367631	aime ton	-0.07524167
-1.1871402	entendre ton	-0.07524167
-2.1141236	ton prochain	-0.07524167
-1.7436988	et les	-0.07524167
-1.9489952	ou les	-0.07524167
-1.9847088	que les	-0.07524167
-1.6492155	aimes-tu les	-0.07524167
-1.3879633	aimes les	-0.07524167
-2.0485737	pas les	-0.07524167
-1.6529747	as les	-0.07524167
-1.3923807	aimer les	-0.07524167
-1.6576617	tout les	-0.07524167
-1.8420488	quoi les	-0.07524167
-1.440923	connais-tu les	-0.07524167
-1.496192	dans les	-0.07524167
-1.3350937	sont les	-0.07524167
-0.4059248	tous les	-0.118950814
-1.2583263	aime les	-0.10093592
-1.6202624	comme les	-0.07524167
-0.89395565	bonjour les	-0.07524167
-0.89395565	hello les	-0.07524167
-0.89395565	bientôt les	-0.07524167
-0.6036694	bonbons les	-0.07524167
-1.3305775	adore les	-0.07524167
-0.89395565	ciel les	-0.07524167
-0.89395565	expliquer les	-0.07524167
-2.1273434	les yeux	-0.07524167
-1.2573693	des yeux	-0.17929317
-1.3859105	plusieurs yeux	-0.07524167
-1.4522449	yeux bleu	-0.07524167
-0.9133946	vert bleu	-0.07524167
-0.6135236	alors bleu	-0.07524167
-2.25701	je constate	-0.07524167
-2.7267656	<s> des	-0.07524167
-1.4213082	et des	-0.089328215
-1.1495528	ou des	-0.07524171
-1.9462135	que des	-0.07524167
-1.6913021	avec des	-0.07524167
-1.3733876	voire des	-0.07524167
-1.6273073	as des	-0.07524167
-1.3177797	cerveau des	-0.07524167
-1.1856742	as-tu des	-0.12110146
-0.75835437	voir des	-0.07524167
-1.3244226	mère des	-0.07524167
-1.0526588	amis des	-0.07524167
-1.2138388	faire des	-0.118950814
-1.8092086	quoi des	-0.07524167
-1.165295	par des	-0.07524167
-1.2630066	manger des	-0.14257398
-1.6391923	boire des	-0.07524167
-1.165295	tête des	-0.07524167
-1.599301	comme des	-0.07524167
-0.6012404	inventer des	-0.07524167
-0.66526306	jeu des	-0.14257398
-1.2557606	regarder des	-0.07524167
-1.0526588	ressentir des	-0.07524167
-0.6012404	possèdes des	-0.07524167
-1.1709694	donne-moi des	-0.07524167
-1.0526588	doigts des	-0.07524167
-0.6012404	corps des	-0.07524167
-0.6012404	avais des	-0.07524167
-2.4309947	des caméras	-0.07524167
-2.5280113	de caméras	-0.07524167
-1.3859105	plusieurs caméras	-0.07524167
-2.4023585	<s> combien	-0.12824646
-1.7741842	as combien	-0.07524167
-0.6135236	calcule combien	-0.07524167
-2.0934622	<s> de	-0.32578772
-1.7516026	et de	-0.118950814
-1.2843566	ou de	-0.0911216
-1.5194844	pas de	-0.07524167
-1.6741321	es de	-0.07524167
-1.4648249	vraiment de	-0.07524167
-1.5177473	as de	-0.07524167
-1.2088091	combien de	-0.07524167
-0.53529364	sûr de	-0.14257398
-0.6839122	ni de	-0.07524167
-1.3070526	moins de	-0.07524167
-0.589295	rêves-tu de	-0.07524167
-0.8663372	rêves de	-0.07524167
-1.6118166	manger de	-0.07524167
-0.6530327	capable de	-0.0857635
-1.6267607	parler de	-0.07524167
-0.589295	moyen de	-0.07524167
-0.8150731	écouter de	-0.14257398
-0.8663372	parlons de	-0.07524167
-0.589295	parles-moi de	-0.07524171
-1.1329399	capteurs de	-0.07524167
-1.3470284	météo de	-0.07524167
-0.589295	niveau de	-0.07524167
-0.8663372	parles de	-0.07524167
-0.39849246	plein de	-0.118950814
-1.0196965	salle de	-0.07524167
-1.3177388	fait de	-0.07524167
-0.51816523	envie de	-0.07524171
-1.0196965	content de	-0.07524167
-0.589295	plaisir de	-0.07524167
-0.589295	sympas de	-0.07524167
-0.8663372	jus de	-0.07524167
-0.589295	films de	-0.07524167
-0.589295	zones de	-0.07524167
-1.1230341	beaucoup de	-0.07524167
-0.589295	tas de	-0.07524167
-0.7461377	avoir de	-0.14257398
-0.8663372	tristesse de	-0.07524167
-0.589295	manque de	-0.07524167
-0.36652344	avant de	-0.14257398
-0.53529364	besoin de	-0.07524167
-0.589295	cause de	-0.07524167
-1.1230341	porte de	-0.07524167
-0.8663372	parle-moi de	-0.07524167
-0.589295	servir de	-0.07524167
-0.589295	heureux de	-0.07524167
-0.589295	nouveau de	-0.07524167
-0.8663372	disposes-tu de	-0.07524167
-0.589295	capteur de	-0.07524167
-0.589295	station de	-0.07524167
-0.589295	base de	-0.07524167
-0.8663372	capacité de	-0.07524167
-0.589295	a-t-il de	-0.07524167
-2.3333097	tu pour	-0.07524167
-1.3629247	cerveau pour	-0.07524167
-1.4273006	yeux pour	-0.07524167
-1.0789156	caméras pour	-0.07524167
-1.1988729	jeu pour	-0.07524167
-1.1994135	envie pour	-0.07524167
-1.1965771	navré pour	-0.07524167
-1.1965771	désolé pour	-0.07524167
-1.1965771	fais-tu pour	-0.07524167
-0.9055143	lentement pour	-0.07524167
-0.9055143	électricité pour	-0.07524167
-2.6529796	<s> la	-0.07524167
-1.248892	est la	-0.09343831
-1.8557327	et la	-0.07524167
-1.7934717	ou la	-0.07524167
-1.5632197	que la	-0.07524167
-1.5934421	aimes-tu la	-0.07524167
-1.6825553	pas la	-0.07524167
-1.5348005	encore la	-0.07524167
-1.3092422	dis-moi la	-0.07524167
-0.99797493	de la	-0.14454442
-1.5087146	pour la	-0.07524167
-1.2967906	as-tu la	-0.14257398
-1.3703737	comprendre la	-0.07524167
-1.6871855	dire la	-0.07524167
-1.0727557	à la	-0.14257398
-1.5894424	sur la	-0.07524167
-0.29346234	dans la	-0.55415773
-1.1547711	par la	-0.07524167
-0.36171883	vers la	-0.3163238
-0.5983434	mémoriser la	-0.07524167
-0.75458515	regarder la	-0.14257398
-1.302904	adore la	-0.07524167
-0.5983434	mémorises la	-0.07524167
-0.5983434	histoire la	-0.07524167
-1.237477	sciences la	-0.07524167
-0.5983434	énormément la	-0.07524167
-0.6622962	donne-moi la	-0.14257398
-1.1547711	porte la	-0.07524167
-0.8291939	puis la	-0.14257398
-0.37065864	donnes-moi la	-0.14257398
-0.88362384	reconnaitre la	-0.07524167
-1.0445167	souvent la	-0.07524167
-0.5983434	sera la	-0.07524167
-0.5983434	toute la	-0.07524167
-2.3780615	la vision	-0.07524167
-1.0955318	<s> as-tu	-0.7115537
-2.3585174	alfred as-tu	-0.07524167
-1.8397014	et as-tu	-0.252903
-1.4449008	quand as-tu	-0.07524167
-1.0863575	âge as-tu	-0.07524167
-1.7674211	me voir	-0.07524167
-1.7672492	peux voir	-0.07524167
-2.243596	peux-tu voir	-0.07524167
-1.6388992	pour voir	-0.07524167
-2.1273434	les choses	-0.07524167
-2.4309947	des choses	-0.07524167
-2.0441458	de choses	-0.118950814
-1.80095	des micros	-0.118950814
-1.7148056	tes micros	-0.07524167
-1.3859105	plusieurs micros	-0.07524167
-2.4563136	des microphones	-0.07524167
-2.4536831	un micro	-0.07524167
-1.7963657	un haut-parleur	-0.10760424
-2.1013284	ton haut-parleur	-0.07524167
-0.6135236	fonctionne haut-parleur	-0.07524167
-2.4563136	des haut-parleurs	-0.07524167
-2.375928	pas certain	-0.07524167
-1.6910619	es-tu certain	-0.07524167
-2.1314898	es sûr	-0.07524167
-2.198328	es-tu sûr	-0.07524167
-1.6806474	vraiment sûr	-0.07524167
-1.7741842	as raison	-0.07524167
-1.8947086	as-tu raison	-0.07524167
-0.6135236	sûrement raison	-0.07524167
-1.9446237	mon maitre	-0.07524167
-1.4146298	mon créateur	-0.07524167
-2.1084392	ton créateur	-0.07524167
-1.9446237	mon inventeur	-0.07524167
-2.050052	et d'	-0.07524167
-2.095842	pas d'	-0.07524167
-1.0651655	certain d'	-0.07524167
-1.7120751	suis d'	-0.07524167
-1.6525419	moi d'	-0.07524167
-1.1855183	capable d'	-0.07524167
-1.7556337	parler d'	-0.07524167
-1.4037116	temps d'	-0.07524167
-1.4500705	météo d'	-0.07524167
-0.89777446	système d'	-0.07524167
-0.89777446	jus d'	-0.07524167
-1.0651655	artificielle d'	-0.07524167
-0.6056224	manquer d'	-0.07524167
-1.1815751	porte d'	-0.07524167
-0.89777446	disposes-tu d'	-0.07524167
-0.89777446	nez d'	-0.07524167
-0.6056224	disposes d'	-0.07524167
-0.89777446	capacité d'	-0.07524167
-0.3739513	lois d'	-0.14257398
-2.4906518	ou être	-0.07524167
-1.7470849	peux être	-0.07524167
-1.7359415	peux-tu être	-0.07524167
-1.4011	d' être	-0.07524167
-0.9094366	penses être	-0.07524167
-0.9094366	penses-tu être	-0.07524167
-1.2981249	préfères être	-0.07524167
-1.940867	mon botmaster	-0.07524167
-2.1084392	ton botmaster	-0.07524167
-1.4132185	mon copain	-0.07524167
-1.7963657	un copain	-0.118950814
-1.17976	ton copain	-0.252903
-1.4132185	mon pote	-0.14257398
-1.9339347	un pote	-0.14257398
-2.1013284	ton pote	-0.07524167
-1.8512446	pas ma	-0.10093592
-2.1002183	es ma	-0.07524167
-2.166977	es-tu ma	-0.07524167
-1.3812559	ni ma	-0.07524167
-1.4449008	moins ma	-0.07524167
-2.2893496	une copine	-0.07524167
-1.8947086	as-tu copine	-0.07524167
-1.5596372	ma copine	-0.07524167
-1.9446237	mon amie	-0.07524167
-1.4827367	petit mais	-0.07524167
-2.2093322	pas mais	-0.07524167
-0.609555	amie mais	-0.07524167
-1.3656981	père mais	-0.07524167
-1.4827367	chanter mais	-0.07524167
-1.4827367	dormir mais	-0.07524167
-1.1988729	accord mais	-0.07524167
-0.609555	travail mais	-0.07524167
-0.9055143	peine mais	-0.07524167
-0.609555	malin mais	-0.07524167
-1.1965771	grave mais	-0.07524167
-2.2984955	une soeur	-0.07524167
-1.5617521	ma soeur	-0.07524167
-1.2062235	créateur ni	-0.07524167
-1.0851083	soeur ni	-0.07524167
-1.3798232	bras ni	-0.07524167
-1.207433	mains ni	-0.07524167
-0.9104227	fruit ni	-0.07524167
-1.2062235	navré ni	-0.07524167
-2.241309	une mère	-0.07524167
-1.3783429	grand mère	-0.07524167
-1.0250354	ma mère	-0.14257398
-0.6120311	belle mère	-0.07524167
-1.6653471	ta mère	-0.07524167
-0.6120311	carte mère	-0.07524167
-2.2984955	une cousine	-0.07524167
-1.5617521	ma cousine	-0.07524167
-1.6641898	encore moins	-0.07524167
-0.9104227	sept moins	-0.07524167
-0.9104227	neuf moins	-0.07524167
-0.6120311	onze moins	-0.07524167
-0.6120311	treize moins	-0.07524167
-0.6120311	quinze moins	-0.07524167
-1.0296187	ma belle	-0.14257398
-1.9274434	mon père	-0.07524167
-2.4070044	un père	-0.07524167
-1.3837262	grand père	-0.07524167
-1.5819994	ton père	-0.07524167
-2.279567	pas comprendre	-0.07524167
-1.7470849	peux comprendre	-0.07524167
-2.1888819	peux-tu comprendre	-0.07524167
-2.4201078	de comprendre	-0.07524167
-1.7487289	tout comprendre	-0.07524167
-1.819076	veux-tu comprendre	-0.07524167
-1.082422	connaitre comprendre	-0.07524167
-1.8821443	ne saisi	-0.07524167
-3.0789466	<s> tout	-0.07524167
-1.6433908	que tout	-0.14257398
-1.6920228	pas tout	-0.07524167
-1.8470757	si tout	-0.07524167
-2.1402957	peux-tu tout	-0.07524167
-1.6412504	veux tout	-0.07524167
-0.88108546	du tout	-0.10093592
-0.9064915	revoir tout	-0.07524167
-0.6100491	découvrir tout	-0.07524167
-0.6100491	comprenne tout	-0.07524167
-1.3524274	ne comprends	-0.14257398
-1.8821443	ne saisis	-0.07524167
-2.7446609	et saisir	-0.07524167
-1.7834003	une chose	-0.07524167
-0.4110865	quelque chose	-0.10760424
-1.5358028	un truc	-0.10760424
-2.906896	<s> a	-0.07524167
-1.6896163	tout a	-0.07524167
-1.0679945	truc a	-0.07524167
-1.7802252	dire a	-0.07524167
-1.1852772	rien a	-0.07524167
-1.6926309	t' a	-0.07524167
-0.6066022	commencé a	-0.07524167
-1.4176251	jouer a	-0.07524167
-1.071599	ensemble a	-0.07524167
-0.89969647	vivant a	-0.07524167
-1.0679945	salle a	-0.07524167
-0.89969647	salut a	-0.07524167
-0.6066022	prêt a	-0.07524167
-1.0679945	triste a	-0.07524167
-0.6066022	recommences a	-0.07524167
-0.6066022	essayes a	-0.07524167
-0.6066022	ca a	-0.07524167
-1.098152	me dire	-0.089328215
-1.734144	peux dire	-0.07524167
-2.155895	peux-tu dire	-0.07524167
-1.9876794	de dire	-0.14257398
-1.7812566	a dire	-0.07524167
-1.6164831	à dire	-0.07524167
-1.646595	veux dire	-0.07524167
-1.8041615	veux-tu dire	-0.07524167
-1.2933303	préfères dire	-0.07524167
-2.3633938	pas quelque	-0.07524167
-1.8947086	as-tu quelque	-0.07524167
-0.9133946	racontes-moi quelque	-0.07524167
-2.58164	ou rien	-0.07524167
-1.7672492	as rien	-0.07524167
-1.504669	météo rien	-0.07524167
-0.61302555	dit rien	-0.07524167
-2.4302478	un camarade	-0.07524167
-2.2893496	une camarade	-0.07524167
-2.1013284	ton camarade	-0.07524167
-1.4732782	les amis	-0.118950814
-1.9425292	des amis	-0.14257398
-2.1343544	les copains	-0.07524167
-1.9425292	des copains	-0.118950814
-2.4563136	des copines	-0.07524167
-1.8067535	des camarades	-0.333029
-1.6044439	<s> quelle	-0.72120917
-2.2570727	est quelle	-0.07524167
-2.2986388	alfred quelle	-0.07524167
-2.4971619	et quelle	-0.07524167
-1.389733	en quelle	-0.333029
-1.4315872	aimes quelle	-0.07524167
-1.9876794	de quelle	-0.14257398
-1.8320216	dire quelle	-0.07524167
-1.2933303	préfères quelle	-0.07524167
-1.7753701	une couleur	-0.07524167
-2.339827	la couleur	-0.07524167
-0.97272396	quelle couleur	-0.16775018
-1.6758329	ta couleur	-0.07524167
-2.63677	ou rouge	-0.07524167
-2.2071042	es-tu rouge	-0.07524167
-2.63677	ou vert	-0.07524167
-2.1402428	es vert	-0.07524167
-1.0895398	bleu orange	-0.07524167
-1.9392037	d' orange	-0.07524167
-2.1472642	es jaune	-0.07524167
-0.614	jaune violet	-0.07524167
-2.6532054	ou rose	-0.07524167
-1.6084336	tu aimerais	-0.252903
-1.6845565	qu' aimerais	-0.07524167
-2.4003136	et faire	-0.07524167
-2.351392	ou faire	-0.07524167
-2.2999604	tu faire	-0.07524167
-2.0081787	le faire	-0.07524167
-1.7093645	peux faire	-0.07524167
-1.5782481	peux-tu faire	-0.07524167
-1.6082046	de faire	-0.12824646
-1.073708	aimerais faire	-0.07524167
-1.421282	sais-tu faire	-0.07524167
-1.2838968	sais faire	-0.07524167
-1.6255999	veux faire	-0.07524167
-1.7757866	veux-tu faire	-0.07524167
-1.1954956	baiser faire	-0.07524167
-2.2105117	est quoi	-0.07524167
-2.314599	de quoi	-0.07524167
-1.7603704	a quoi	-0.07524167
-1.8118672	dire quoi	-0.07524167
-0.8153174	faire quoi	-0.2077855
-1.6030613	à quoi	-0.07524167
-0.9045392	fais quoi	-0.07524167
-1.1946733	trouver quoi	-0.07524167
-1.6702814	comme quoi	-0.07524167
-1.4248503	fait quoi	-0.07524167
-0.9045392	bois quoi	-0.07524167
-0.6090615	manges quoi	-0.07524167
-2.5253625	tu étais	-0.07524167
-2.4432006	un humain	-0.07524167
-0.61379004	étais humain	-0.07524167
-3.4006329	<s> suis-moi	-0.07524167
-2.401231	alfred suis-moi	-0.07524167
-1.0900707	suis-moi jusqu'	-0.07524167
-2.7238743	<s> à	-0.118950814
-1.2970375	chose à	-0.07524167
-1.0794978	truc à	-0.07524167
-1.20041	rien à	-0.07524167
-0.6105438	jusqu' à	-0.07524167
-0.907471	parles à	-0.07524167
-1.0794978	salle à	-0.07524167
-0.6105438	fonctionnes-tu à	-0.07524167
-0.6105438	face à	-0.07524167
-1.4539788	la cuisine	-0.25222942
-1.7867236	<s> quel	-0.52137417
-2.3128524	alfred quel	-0.07524167
-1.8221539	et quel	-0.252903
-1.3922942	en quel	-0.333029
-1.7405661	as quel	-0.07524167
-0.9084527	préférés quel	-0.07524167
-0.9084527	sommes quel	-0.07524167
-1.2957209	préfères quel	-0.07524167
-1.940867	mon nom	-0.07524167
-1.4476452	ton nom	-0.07524167
-1.8217765	<s> comment	-0.30155513
-2.29114	est comment	-0.07524167
-1.8628056	alfred comment	-0.10093592
-2.0668862	et comment	-0.07524167
-2.4906518	ou comment	-0.07524167
-1.375676	dis-moi comment	-0.07524167
-1.2042769	savoir comment	-0.07524167
-1.7252765	je m'	-0.07524167
-2.243596	peux-tu m'	-0.07524167
-2.49842	de m'	-0.07524167
-1.8274487	parler m'	-0.07524167
-1.3102381	m' appelle	-0.07524167
-2.9402018	<s> suis	-0.14257398
-1.8744552	ne suis	-0.07524167
-0.74985373	je suis	-0.18653
-2.0058503	quoi maintenant	-0.07524167
-1.82579	suis maintenant	-0.07524167
-0.6135236	analyse maintenant	-0.07524167
-2.041638	<s> qu'	-0.46635404
-2.3128524	alfred qu'	-0.07524167
-1.1569972	ce qu'	-0.10760424
-1.0809574	aimerais qu'	-0.07524167
-1.0826206	maintenant qu'	-0.07524167
-1.4364876	sais-tu qu'	-0.07524167
-1.4364876	temps qu'	-0.07524167
-0.611039	ainsi qu'	-0.07524167
-1.5634992	robot humanoide	-0.07524167
-1.773664	aimes-tu rechercher	-0.07524167
-1.7741842	peux rechercher	-0.07524167
-2.2634814	peux-tu rechercher	-0.07524167
-2.065518	ou sur	-0.07524167
-2.2258549	pas sur	-0.07524167
-2.0972676	es-tu sur	-0.07524167
-1.2909527	trouve sur	-0.07524167
-0.5331572	rechercher sur	-0.14257398
-0.5506872	recherche sur	-0.118950814
-0.6100491	documenter sur	-0.07524167
-1.3677725	puis sur	-0.07524167
-0.6100491	renseignes-moi sur	-0.07524167
-0.6100491	informations sur	-0.07524167
-1.7665175	aimes-tu internet	-0.07524167
-2.0135655	bien internet	-0.07524167
-0.7770503	sur internet	-0.19038095
-1.5054196	connais-tu internet	-0.07524167
-2.2984955	une donnée	-0.07524167
-1.8581495	la donnée	-0.14257398
-2.8121605	<s> recherche	-0.333029
-2.3918672	alfred recherche	-0.07524167
-1.8548623	la recherche	-0.14257398
-0.7770503	sur wikipédia	-0.21108153
-1.5054196	connais-tu wikipédia	-0.07524167
-1.0868454	connais wikipédia	-0.07524167
-0.61302555	préfères-tu wikipédia	-0.07524167
-2.3685207	est madonna	-0.07524167
-1.5090947	connais-tu madonna	-0.07524167
-1.0883299	connais madonna	-0.07524167
-1.2135875	madonna einstein	-0.07524167
-0.61379004	albert einstein	-0.07524167
-2.724925	et newton	-0.07524167
-2.63677	ou newton	-0.07524167
-2.1217005	<s> connais-tu	-0.10760424
-2.401231	alfred connais-tu	-0.07524167
-1.5126356	connais-tu shakira	-0.07524167
-2.63677	ou céline	-0.07524167
-1.683646	encore céline	-0.07524167
-0.37770352	céline dion	-0.14257398
-1.6729386	qui t'	-0.07524167
-2.422577	et t'	-0.07524167
-2.371717	ou t'	-0.07524167
-1.819128	tu t'	-0.252903
-1.808019	ne t'	-0.07524167
-1.2851583	axel t'	-0.07524167
-1.692375	je t'	-0.14257398
-1.9619801	de t'	-0.14257398
-1.4800556	nous t'	-0.07524167
-1.4242809	il t'	-0.07524167
-1.7625402	aime t'	-0.07524167
-0.6090615	fera t'	-0.07524167
-1.781613	t' appelles	-0.07524167
-2.1084392	ton age	-0.07524167
-1.7188492	quel age	-0.07524167
-2.4023585	<s> sais-tu	-0.10093592
-2.3918672	alfred sais-tu	-0.07524167
-1.6698622	que sais-tu	-0.14257398
-2.724925	et sinon	-0.07524167
-0.61379004	classer sinon	-0.07524167
-2.0112948	tu fais	-0.14257398
-1.8798579	comment fais	-0.07524167
-1.3269081	tu sais	-0.18528262
-2.1431522	le sais	-0.07524167
-1.8729007	tu veux	-0.0911216
-1.7318826	je veux	-0.07524171
-1.673604	que rêves-tu	-0.14257398
-2.283372	peux-tu rêver	-0.07524167
-2.6532054	ou voyager	-0.07524167
-1.7407752	est dans	-0.14257398
-2.196286	et dans	-0.07524167
-2.161437	ou dans	-0.07524167
-1.9374372	es-tu dans	-0.07524167
-1.7780695	faire dans	-0.07524167
-0.5452552	suis-moi dans	-0.14257398
-1.6760907	suis dans	-0.07524167
-0.6026961	voyager dans	-0.07524167
-1.6222526	moi dans	-0.07524167
-1.1706542	trouver dans	-0.07524167
-1.2617517	vivre dans	-0.07524167
-0.89205873	promènes-toi dans	-0.07524167
-0.89205873	promener dans	-0.07524167
-0.89205873	rendre dans	-0.07524167
-0.5452552	diriges-toi dans	-0.07524167
-0.5452552	rends-toi dans	-0.118950814
-1.2617517	entrée dans	-0.07524167
-1.0567878	vas dans	-0.07524167
-0.89205873	déplacer dans	-0.07524167
-0.6026961	circule dans	-0.07524167
-1.1706542	lacunes dans	-0.07524167
-1.3302776	puis dans	-0.07524167
-0.89205873	déplaces-toi dans	-0.07524167
-0.6026961	promènes dans	-0.07524167
-0.6026961	rend-toi dans	-0.07524167
-2.5141532	tu rêves	-0.07524167
-2.1343544	les rêves	-0.07524167
-3.2202747	<s> ta	-0.07524167
-1.847737	est ta	-0.10760424
-2.518915	ou ta	-0.07524167
-2.299056	pas ta	-0.07524167
-1.88668	de ta	-0.0965466
-0.6120311	animent ta	-0.07524167
-1.0286629	couleur préférée	-0.07524167
-0.9200337	musique préférée	-0.07524167
-1.2126513	prénom préférée	-0.07524167
-2.4302478	un livre	-0.07524167
-2.1013284	ton livre	-0.07524167
-1.7159779	quel livre	-0.07524167
-1.2135875	livre préféré	-0.07524167
-0.67812085	prénom préféré	-0.14257398
-1.6414597	une musique	-0.07524167
-1.8548623	la musique	-0.07524167
-1.1524411	ta musique	-0.14257398
-2.8280382	<s> quelles	-0.333029
-0.612528	quelles sont	-0.07524167
-0.37704712	quels sont	-0.14257398
-0.91141105	batteries sont	-0.07524167
-0.612528	cheveux sont	-0.07524167
-0.612528	elles sont	-0.07524167
-2.137503	que tes	-0.07524167
-1.7857754	avec tes	-0.07524167
-1.6308866	de tes	-0.10760424
-2.0345056	dans tes	-0.07524167
-0.8500844	sont tes	-0.07524167
-1.438193	quand tes	-0.07524167
-0.6115348	servent tes	-0.07524167
-1.7204243	tes musiques	-0.07524167
-0.614	musiques préférées	-0.07524167
-2.4302478	un prénom	-0.07524167
-2.1013284	ton prénom	-0.07524167
-1.7159779	quel prénom	-0.07524167
-2.5141532	tu préférés	-0.07524167
-1.4543749	loisirs préférés	-0.07524167
-1.9380845	des loisirs	-0.118950814
-2.5280113	de loisirs	-0.07524167
-1.7148056	tes loisirs	-0.07524167
-2.5655313	<s> quels	-0.45796776
-2.401231	alfred quels	-0.07524167
-1.9479778	<s> veux-tu	-0.08673278
-1.5270352	que veux-tu	-0.18528262
-1.4819263	quoi veux-tu	-0.07524167
-1.4498022	musique veux-tu	-0.07524167
-2.6219978	et chanter	-0.07524167
-2.5491462	ou chanter	-0.07524167
-2.2245817	peux-tu chanter	-0.07524167
-2.470717	de chanter	-0.07524167
-1.321676	veux-tu chanter	-0.07524167
-2.952074	<s> chantes	-0.07524167
-2.5141532	tu chantes	-0.07524167
-2.4708512	et moi	-0.07524167
-0.86342037	avec moi	-0.22574213
-1.6095531	pour moi	-0.07524167
-1.7723463	suis moi	-0.07524167
-1.6849732	sur moi	-0.07524167
-1.0780432	chantes moi	-0.07524167
-0.6100491	donnes moi	-0.07524167
-1.6800288	comme moi	-0.07524167
-1.2005715	pleurer moi	-0.07524167
-0.6100491	donnez moi	-0.07524167
-1.300962	ce jour	-0.14257398
-2.106645	le jour	-0.07524167
-2.3849418	un jour	-0.07524167
-1.1840585	quel jour	-0.07524167
-0.8851297	du jour	-0.252903
-2.120685	le trouver	-0.07524167
-2.243596	peux-tu trouver	-0.07524167
-1.2110839	rechercher trouver	-0.07524167
-1.6743522	veux trouver	-0.07524167
-2.0112004	quoi ici	-0.07524167
-1.2131741	par ici	-0.07524167
-1.8583997	veux-tu chercher	-0.07524167
-0.61302555	chercher par	-0.07524167
-1.3061769	regarder par	-0.07524167
-0.9124017	moche par	-0.07524167
-0.61302555	motorisée par	-0.07524167
-2.1473815	et manger	-0.07524167
-1.7259452	aimes-tu manger	-0.07524167
-1.4283217	aimes manger	-0.07524167
-1.7278153	peux manger	-0.07524167
-1.7181921	peux-tu manger	-0.07524167
-1.6193975	de manger	-0.14257398
-1.7741823	a manger	-0.07524167
-1.6119629	à manger	-0.07524167
-1.486008	dormir manger	-0.07524167
-1.7760261	aime manger	-0.07524167
-2.5446951	de nourriture	-0.07524167
-2.3695407	la nourriture	-0.07524167
-2.1402428	es capable	-0.07524167
-1.0019827	es-tu capable	-0.35720956
-2.1259847	te nourrir	-0.07524167
-1.673604	que manges-tu	-0.14257398
-2.2817807	<s> quand	-0.18528262
-0.61302555	manges-tu quand	-0.07524167
-1.0868454	triste quand	-0.07524167
-1.2101429	fais-tu quand	-0.07524167
-1.6696066	vraiment faim	-0.07524167
-1.7604232	as faim	-0.07524167
-1.8774445	as-tu faim	-0.07524167
-1.7906301	très faim	-0.07524167
-1.5508481	ai faim	-0.07524167
-1.453515	jour sommes-nous	-0.07524167
-1.2121159	mois sommes-nous	-0.07524167
-1.0883299	année sommes-nous	-0.07524167
-2.8603647	<s> nous	-0.07524167
-1.6966424	qui nous	-0.07524167
-2.137503	que nous	-0.07524167
-1.7857754	avec nous	-0.07524167
-1.8614526	si nous	-0.07524167
-1.2042769	mois nous	-0.07524167
-1.082422	année nous	-0.07524167
-0.8365129	nous sommes	-0.118950814
-1.4539788	la date	-0.21108153
-2.4971619	et du	-0.07524167
-1.8237036	pas du	-0.14257398
-1.3708223	bête du	-0.07524167
-1.0794978	date du	-0.07524167
-1.2022767	heure du	-0.07524167
-0.37616038	jouir du	-0.14257398
-1.4856966	météo du	-0.07524167
-0.6105438	sortir du	-0.07524167
-0.6105438	mal du	-0.07524167
-1.4847603	le mois	-0.252903
-1.7188492	quel mois	-0.07524167
-1.4694046	l' année	-0.14257398
-1.6481513	quelle année	-0.07524167
-1.0607393	l' heure	-0.252903
-1.1160582	quelle heure	-0.07524167
-1.0291568	robot est-il	-0.07524167
-1.2135875	heure est-il	-0.07524167
-2.8984513	<s> il	-0.14257398
-2.212661	et il	-0.07524167
-1.1496269	qu' il	-0.07524167
-1.762523	t' il	-0.07524167
-0.612528	s' il	-0.07524167
-1.5898753	ton adresse	-0.14257398
-0.614	adresse ip	-0.07524167
-3.428117	<s> donnes	-0.07524167
-2.5141532	tu pouvais	-0.07524167
-2.1431522	le pouvais	-0.07524167
-2.1495254	le futur	-0.07524167
-1.9032054	as-tu été	-0.07524167
-0.61379004	été fabriqué	-0.07524167
-1.5613424	ai fabriqué	-0.07524167
-2.6532054	ou conçu	-0.07524167
-2.2141445	es-tu né	-0.07524167
-1.833934	a créé	-0.07524167
-1.9032054	as-tu commencé	-0.07524167
-2.4003136	et parler	-0.07524167
-1.7069973	aimes-tu parler	-0.07524167
-1.5577688	te parler	-0.14257398
-1.709922	me parler	-0.07524167
-2.0966024	peux-tu parler	-0.07524167
-1.8402916	de parler	-0.07524167
-1.2788552	a parler	-0.07524167
-1.6255999	veux parler	-0.07524167
-1.7757866	veux-tu parler	-0.07524167
-1.7559512	aime parler	-0.07524167
-0.6085685	pouvons-nous parler	-0.07524167
-1.1927776	entendre parler	-0.07524167
-0.6085685	souhaites-tu parler	-0.07524167
-3.4006329	<s> seras-tu	-0.07524167
-1.4535527	quand seras-tu	-0.07524167
-2.1402428	es mort	-0.07524167
-0.9139262	seras-tu mort	-0.07524167
-0.91434544	seras-tu décédé	-0.07524167
-2.63677	ou hors	-0.07524167
-2.1402428	es hors	-0.07524167
-0.37770352	hors service	-0.14257398
-1.1885275	tes batteries	-0.07524167
-0.91434544	batteries seront	-0.07524167
-1.3879023	sont vides	-0.07524167
-0.61379004	seront vides	-0.07524167
-2.4563136	des aliments	-0.07524167
-1.752568	aimes-tu jouer	-0.07524167
-2.206365	peux-tu jouer	-0.07524167
-1.6630356	veux jouer	-0.07524167
-1.3192692	veux-tu jouer	-0.07524167
-0.37682527	viens jouer	-0.14257398
-1.378624	aussi jouer	-0.07524167
-2.2737725	est toi	-0.07524167
-1.6706014	et toi	-0.10093592
-2.126206	que toi	-0.07524167
-0.5824013	avec toi	-0.49594104
-2.3968558	de toi	-0.07524167
-1.6191164	pour toi	-0.07524167
-1.1793644	comme toi	-0.14257398
-0.611039	devant toi	-0.07524167
-2.8209703	<s> viens	-0.333029
-2.401231	alfred viens	-0.07524167
-2.9616601	<s> jouons	-0.07524167
-1.8263075	a tous	-0.07524167
-0.9133946	jouons tous	-0.07524167
-0.55324566	ensemble tous	-0.14257398
-2.1343544	les deux	-0.07524167
-1.3091958	fois deux	-0.07524167
-2.2744951	peux-tu danser	-0.07524167
-0.61379004	obéir danser	-0.07524167
-2.6532054	ou doucement	-0.07524167
-2.2744951	peux-tu jouir	-0.07524167
-1.8549168	veux-tu jouir	-0.07524167
-2.1314898	es beau	-0.07524167
-1.5598857	du beau	-0.07524167
-1.276582	très beau	-0.07524167
-1.6136253	le temps	-0.07524167
-1.5040938	même temps	-0.07524167
-1.1840585	quel temps	-0.07524167
-1.5522673	du temps	-0.07524167
-1.2081788	beau temps	-0.07524167
-2.159676	et boire	-0.07524167
-1.7324495	aimes-tu boire	-0.07524167
-1.4315872	aimes boire	-0.07524167
-2.2430313	pas boire	-0.07524167
-1.734144	peux boire	-0.07524167
-1.7240283	peux-tu boire	-0.07524167
-1.6231935	de boire	-0.10760424
-1.7362452	tout boire	-0.07524167
-1.8041615	veux-tu boire	-0.07524167
-1.781613	t' alimenter	-0.07524167
-1.752568	aimes-tu dormir	-0.07524167
-1.742023	peux-tu dormir	-0.118950814
-1.88668	de dormir	-0.118950814
-1.8267297	veux-tu dormir	-0.07524167
-1.8043232	aime dormir	-0.07524167
-1.3771477	adore dormir	-0.07524167
-2.1320484	ou plusieurs	-0.07524167
-1.7672492	as plusieurs	-0.07524167
-2.49842	de plusieurs	-0.07524167
-0.9766724	dormir plusieurs	-0.14257398
-1.3887391	plusieurs heures	-0.07524167
-2.2744951	peux-tu souffrir	-0.07524167
-1.8549168	veux-tu souffrir	-0.07524167
-2.1561368	ou mourir	-0.14257398
-2.2634814	peux-tu vivre	-0.07524167
-1.643989	pour vivre	-0.07524167
-1.8505352	veux-tu vivre	-0.07524167
-2.1091635	et analyser	-0.118950814
-1.9340099	d' analyser	-0.07524167
-0.9200703	comprendre analyser	-0.14257398
-2.7446609	et traduire	-0.07524167
-2.2744951	peux-tu examiner	-0.07524167
-1.8549168	veux-tu examiner	-0.07524167
-0.37770352	examiner dessiner	-0.14257398
-2.2141445	es-tu méchant	-0.07524167
-2.724925	et gentil	-0.07524167
-2.63677	ou gentil	-0.07524167
-2.2071042	es-tu doué	-0.07524167
-1.8069042	très doué	-0.07524167
-2.2141445	es-tu dangereux	-0.07524167
-2.6532054	ou mortel	-0.07524167
-2.2141445	es-tu sauvage	-0.07524167
-1.6082652	être violent	-0.07524167
-1.6082652	être vulgaire	-0.07524167
-2.2141445	es-tu sage	-0.07524167
-0.614	sage doux	-0.07524167
-2.2141445	es-tu attentif	-0.07524167
-2.1495254	le moyen	-0.07524167
-1.773664	aimes-tu rire	-0.07524167
-2.2634814	peux-tu rire	-0.07524167
-1.8268257	aime rire	-0.07524167
-2.724925	et marcher	-0.07524167
-2.2744951	peux-tu marcher	-0.07524167
-2.135194	le pense	-0.07524167
-1.3501425	ne pense	-0.14257398
-2.243339	je pense	-0.07524167
-1.6963962	est très	-0.21108153
-2.2258549	pas très	-0.07524167
-2.030666	es très	-0.07524167
-1.6545532	es-tu très	-0.07524167
-1.1408439	vraiment très	-0.07524167
-1.4283217	voire très	-0.07524167
-1.2909527	trouve très	-0.07524167
-1.5308604	ai très	-0.07524167
-1.0780432	vas très	-0.07524167
-1.2909527	air très	-0.07524167
-2.1495254	le parier	-0.07524167
-2.5872674	et écouter	-0.07524167
-1.752568	aimes-tu écouter	-0.07524167
-2.206365	peux-tu écouter	-0.07524167
-1.9059571	d' écouter	-0.07524167
-1.3005422	m' écouter	-0.07524167
-1.7562494	t' écouter	-0.07524167
-1.3890551	écouter calmement	-0.07524167
-2.2744951	peux-tu calculer	-0.07524167
-1.4539636	sais-tu calculer	-0.07524167
-0.91434544	calculer rapidement	-0.07524167
-2.7446609	et comparer	-0.07524167
-0.9786861	nous parlions	-0.07524167
-0.9133946	parlions ensemble	-0.07524167
-0.9133946	parlons ensemble	-0.07524167
-0.6135236	jouait ensemble	-0.07524167
-1.5474612	en accord	-0.07524167
-1.2730418	d' accord	-0.14257398
-3.428117	<s> discutons	-0.07524167
-2.8209703	<s> parlons	-0.333029
-2.724925	et parlons	-0.07524167
-1.6522591	<s> j'	-0.650843
-2.1987965	et j'	-0.14257398
-1.1512568	car j'	-0.14257398
-1.1111014	mais j'	-0.14257398
-1.0838914	copains j'	-0.07524167
-1.7264596	moi j'	-0.07524167
-1.8225728	axel aime	-0.07524167
-1.3054178	n' aime	-0.07524167
-1.1058482	t' aime	-0.10093592
-0.88606584	j' aime	-0.07524167
-1.9076825	<s> parles-moi	-0.935089
-1.686336	ta camera	-0.07524167
-1.3761041	une bouche	-0.10760424
-2.5280113	de bouche	-0.07524167
-1.6811723	ta bouche	-0.07524167
-1.9298886	des oreilles	-0.14257398
-1.9244562	d' oreilles	-0.07524167
-1.7090023	tes oreilles	-0.07524167
-1.38297	plusieurs oreilles	-0.07524167
-1.8041868	des capteurs	-0.07524167
-1.7179396	tes capteurs	-0.07524167
-2.4449751	des capacités	-0.07524167
-1.7179396	tes capacités	-0.07524167
-1.0946517	une caméra	-0.118950814
-1.6840532	ta caméra	-0.07524167
-1.3754076	des bras	-0.24660651
-1.646694	de bras	-0.10760424
-1.7148056	tes bras	-0.07524167
-1.9380845	des mains	-0.07524167
-2.5280113	de mains	-0.07524167
-1.7148056	tes mains	-0.07524167
-1.3766198	des jambes	-0.19424434
-1.9121308	de jambes	-0.118950814
-1.9460628	des pieds	-0.07524167
-1.7834003	une tête	-0.07524167
-1.153292	ta tête	-0.07524167
-1.9412724	un cou	-0.07524167
-1.686336	ta reconnaissance	-0.07524167
-0.61379004	reconnaissance vocale	-0.07524167
-0.61379004	synthèse vocale	-0.07524167
-2.558304	de synthèse	-0.07524167
-3.428117	<s> pouvons-nous	-0.07524167
-1.8355122	parler bavarder	-0.07524167
-1.8309602	aime bavarder	-0.07524167
-2.1561368	ou dialoguer	-0.07524167
-1.7809889	me documenter	-0.07524167
-2.305838	une personne	-0.07524167
-3.2641797	<s> on	-0.07524167
-2.6219978	et on	-0.07524167
-1.3491992	si on	-0.07524167
-1.6717362	qu' on	-0.07524167
-0.612528	personne on	-0.07524167
-1.5345229	un objet	-0.45796776
-1.3879023	on objet	-0.07524167
-2.4536831	un mot	-0.07524167
-2.4536831	un personnage	-0.07524167
-0.9362804	la météo	-0.26951048
-1.4488802	ton système	-0.118950814
-2.5446951	de batterie	-0.07524167
-1.6840532	ta batterie	-0.07524167
-2.1141236	ton niveau	-0.07524167
-1.1885275	tes systèmes	-0.14257398
-2.014785	tu consultes	-0.07524167
-3.4006329	<s> parles	-0.07524167
-2.5141532	tu parles	-0.07524167
-2.5280113	de plein	-0.07524167
-1.9189258	faire plein	-0.07524167
-1.5591081	ai plein	-0.07524167
-2.5253625	tu recherches	-0.07524167
-2.1259847	te renseignes	-0.07524167
-2.1780605	pas comme	-0.07524167
-1.7668614	axel comme	-0.07524167
-1.196136	choses comme	-0.07524167
-1.4239103	loisirs comme	-0.07524167
-1.7778493	manger comme	-0.07524167
-1.7829518	parler comme	-0.07524167
-0.90356636	aliments comme	-0.07524167
-0.6085685	renseignes comme	-0.07524167
-1.073708	penser comme	-0.07524167
-0.90356636	robots comme	-0.07524167
-0.6085685	liquides comme	-0.07524167
-0.6085685	études comme	-0.07524167
-0.90356636	penses-tu comme	-0.07524167
-3.428117	<s> pourquoi	-0.07524167
-0.614	pourquoi existes-tu	-0.07524167
-2.0744963	en vie	-0.07524167
-2.2071042	es-tu vivant	-0.07524167
-1.683646	encore vivant	-0.07524167
-2.5253625	tu respires	-0.07524167
-3.428117	<s> respires-tu	-0.07524167
-3.428117	<s> réfléchis-tu	-0.07524167
-1.9938947	l' eau	-0.07524167
-1.9392037	d' eau	-0.07524167
-2.5253625	tu penses	-0.07524167
-2.2634814	peux-tu penser	-0.07524167
-2.5280113	de penser	-0.07524167
-0.6135236	réfléchir penser	-0.07524167
-1.0891255	penser seul	-0.07524167
-0.61379004	inventé seul	-0.07524167
-2.0509796	en ai	-0.07524167
-1.3054178	n' ai	-0.07524167
-1.7688887	t' ai	-0.07524167
-1.0276212	j' ai	-0.07524171
-1.5631105	ai inventé	-0.07524167
-2.283372	peux-tu inventer	-0.07524167
-1.9460628	des objets	-0.07524167
-0.91434544	objets connectés	-0.07524167
-2.8280382	<s> promènes-toi	-0.118950814
-2.6597493	et va	-0.07524167
-1.7674211	me va	-0.07524167
-1.2463889	tout va	-0.14257398
-0.61302555	ça va	-0.07524167
-2.1259847	te ballader	-0.07524167
-1.1934023	te promener	-0.45796776
-1.7780318	me promener	-0.07524167
-1.8607566	la maison	-0.118950814
-2.724925	et courir	-0.07524167
-2.63677	ou courir	-0.07524167
-2.701097	et sauter	-0.07524167
-2.6167634	ou sauter	-0.07524167
-1.8263075	a sauter	-0.07524167
-1.4550067	voire foncer	-0.07524167
-1.7809889	me distinguer	-0.07524167
-2.1259847	te rendre	-0.07524167
-1.4847603	le salon	-0.10093592
-2.3695407	la salon	-0.07524167
-1.1712382	la salle	-0.27703556
-2.4057662	<s> diriges-toi	-0.24660651
-1.3879023	puis diriges-toi	-0.07524167
-1.6269487	le couloir	-0.10093592
-1.7205901	la chambre	-0.07524167
-2.558304	de bain	-0.07524167
-2.1974354	<s> rends-toi	-0.39273453
-2.724925	et rends-toi	-0.07524167
-1.3272028	l' entrée	-0.07524167
-1.9340099	d' entrée	-0.07524167
-1.3859105	d entrée	-0.07524167
-1.9667376	ou vers	-0.118950814
-0.9084527	rendre vers	-0.07524167
-1.0826206	diriges-toi vers	-0.07524167
-1.0826206	rends-toi vers	-0.07524167
-1.2973572	entrée vers	-0.07524167
-0.611039	diriger vers	-0.07524167
-1.3730255	puis vers	-0.07524167
-0.9084527	déplaces-toi vers	-0.07524167
-3.4006329	<s> vas	-0.07524167
-2.0112948	tu vas	-0.118950814
-2.1259847	te diriger	-0.07524167
-1.3890551	on jouait	-0.07524167
-2.135194	le jeu	-0.07524167
-1.9339347	un jeu	-0.07524167
-0.85342276	au jeu	-0.14257398
-2.8984513	<s> au	-0.14257398
-2.1202278	ou au	-0.07524167
-1.7327027	moi au	-0.07524167
-0.91141105	jouons au	-0.07524167
-1.0853659	chifumi au	-0.07524167
-2.1431522	le chifumi	-0.07524167
-0.85381407	au chifumi	-0.07524167
-2.4563136	des couleurs	-0.07524167
-1.7851875	<s> c'	-1.031999
-1.7219437	alfred c'	-0.118950814
-2.4971619	et c'	-0.07524167
-2.1151955	que c'	-0.07524167
-1.7907445	axel c'	-0.07524167
-1.8518152	si c'	-0.07524167
-1.833704	comment c'	-0.07524167
-1.2933303	sais c'	-0.07524167
-0.907471	cool c'	-0.07524167
-2.4536831	un enfant	-0.07524167
-1.3974624	en fait	-0.118950814
-1.9951564	bien fait	-0.07524167
-1.8031982	a fait	-0.07524167
-1.4427221	il fait	-0.07524167
-0.8508778	on fait	-0.14257398
-1.3795414	au fait	-0.07524167
-2.0693245	en parle	-0.07524167
-2.119981	te parle	-0.07524167
-1.9982178	l' analyse	-0.07524167
-2.7961428	<s> non	-0.118950814
-2.58164	ou non	-0.07524167
-1.3837262	grand non	-0.07524167
-1.8678412	dire non	-0.07524167
-2.25701	je n	-0.07524167
-2.3633938	pas envie	-0.07524167
-1.8947086	as-tu envie	-0.07524167
-1.5591081	ai envie	-0.07524167
-1.9982178	l' instant	-0.07524167
-3.3130279	<s> cela	-0.07524167
-1.3061769	non cela	-0.07524167
-1.2101429	oui cela	-0.07524167
-1.2101429	fais-tu cela	-0.07524167
-1.7809889	me dit	-0.07524167
-1.2140095	rien actuellement	-0.07524167
-2.5655313	<s> oui	-0.252903
-0.94210374	dire oui	-0.349813
-2.9616601	<s> bonjour	-0.07524167
-1.8830068	comment vas-tu	-0.07524167
-2.9616601	<s> salut	-0.07524167
-2.9616601	<s> hello	-0.07524167
-1.3891294	ami ça	-0.07524167
-2.724925	et content	-0.07524167
-1.8301543	suis content	-0.07524167
-2.1343544	les robots	-0.07524167
-2.4449751	des robots	-0.07524167
-1.0292771	j' espère	-0.14257398
-0.55344164	j espère	-0.14257398
-1.6492962	à bientôt	-0.07524167
-2.25701	je pars	-0.07524167
-1.7809889	me coucher	-0.07524167
-1.3893714	au revoir	-0.07524167
-1.6269487	le monde	-0.07524167
-2.0744963	en vais	-0.07524167
-1.612341	c' était	-0.07524167
-2.4536831	un plaisir	-0.07524167
-0.91434544	était sympas	-0.07524167
-2.724925	et converser	-0.07524167
-2.5446951	de converser	-0.07524167
-2.283372	peux-tu mémoriser	-0.07524167
-0.9139262	donnée suivante	-0.07524167
-0.9139262	information suivante	-0.07524167
-3.428117	<s> mémorise	-0.07524167
-1.9938947	l' information	-0.07524167
-2.2984955	une information	-0.07524167
-0.77504754	combien font	-0.07524167
-2.3849418	un fois	-0.07524167
-1.0853659	trois fois	-0.07524167
-0.612528	cinq fois	-0.07524167
-0.91141105	sept fois	-0.07524167
-0.91141105	neuf fois	-0.07524167
-2.6167634	ou trois	-0.07524167
-2.1273434	les trois	-0.07524167
-1.30841	caméra trois	-0.07524167
-1.3102381	fois quatre	-0.07524167
-1.6860228	encore cinq	-0.07524167
-1.3102381	fois six	-0.07524167
-2.9616601	<s> calcule	-0.14257398
-1.2131741	font sept	-0.07524167
-1.2131741	dix sept	-0.07524167
-1.3091958	fois huit	-0.07524167
-1.2131741	dix huit	-0.07524167
-2.63677	ou neuf	-0.07524167
-1.2131741	dix neuf	-0.07524167
-2.58164	ou dix	-0.07524167
-1.4482939	moins dix	-0.07524167
-1.2101429	font dix	-0.07524167
-1.3054178	fois dix	-0.07524167
-1.2140095	font onze	-0.07524167
-1.4550067	moins douze	-0.07524167
-2.6532054	ou treize	-0.07524167
-1.4550067	moins quatorze	-0.07524167
-1.6860228	encore quinze	-0.07524167
-1.4550067	moins seize	-0.07524167
-1.4550067	moins vingt	-0.07524167
-2.4563136	des fruits	-0.07524167
-2.4563136	des légumes	-0.07524167
-2.4563136	des liquides	-0.07524167
-1.9982178	l' alcool	-0.07524167
-2.1399577	les bonbons	-0.07524167
-2.1399577	les gâteaux	-0.07524167
-2.1399577	les sucreries	-0.07524167
-1.4078686	en général	-0.333029
-2.5141532	tu bois	-0.07524167
-1.3514191	ne bois	-0.14257398
-2.0538566	de jus	-0.07524167
-2.4432006	un fruit	-0.07524167
-2.5446951	de fruit	-0.07524167
-1.6155131	les spectacles	-0.07524167
-0.91434544	spectacles comiques	-0.07524167
-0.614	comiques humoristiques	-0.07524167
-2.7446609	et musicaux	-0.07524167
-2.1399577	les concerts	-0.07524167
-0.614	concerts dramatiques	-0.07524167
-2.6532054	ou animaliers	-0.07524167
-1.7665175	aimes-tu regarder	-0.07524167
-2.340872	pas regarder	-0.07524167
-2.243596	peux-tu regarder	-0.07524167
-1.8191947	aime regarder	-0.07524167
-2.4563136	des films	-0.07524167
-2.558304	de science	-0.07524167
-2.558304	de combat	-0.07524167
-2.8209703	<s> j	-0.118950814
-2.724925	et j	-0.07524167
-1.2485404	t' adore	-0.07524167
-1.5602913	j' adore	-0.07524167
-1.0888667	j adore	-0.07524167
-1.6155131	les découvertes	-0.07524167
-2.119981	te déplacer	-0.07524167
-1.7780318	me déplacer	-0.07524167
-2.25701	je circule	-0.07524167
-2.1399577	les différentes	-0.07524167
-0.614	différentes zones	-0.07524167
-2.408752	alfred mémorises	-0.07524167
-3.2641797	<s> merci	-0.07524167
-2.3585174	alfred merci	-0.07524167
-2.0042634	bien merci	-0.07524167
-0.91141105	parfait merci	-0.07524167
-1.0853659	génial merci	-0.07524167
-2.340872	pas beaucoup	-0.07524167
-1.8859907	as-tu beaucoup	-0.07524167
-1.3069375	merci beaucoup	-0.07524167
-0.61302555	aimons beaucoup	-0.07524167
-1.6025099	te remercie	-0.07524167
-3.428117	<s> mes	-0.07524167
-0.614	mes cheveux	-0.07524167
-1.3890551	sont brun	-0.07524167
-0.614	brun blond	-0.07524167
-2.6532054	ou chatain	-0.07524167
-1.4550067	voire gris	-0.07524167
-2.9616601	<s> moi-aussi	-0.14257398
-2.1399577	les sports	-0.07524167
-2.1399577	les activités	-0.07524167
-0.614	activités sportives	-0.07524167
-2.25701	je désire	-0.07524167
-1.7748274	tout connaitre	-0.07524167
-0.6135236	désire connaitre	-0.07524167
-1.2121159	savoir connaitre	-0.07524167
-1.6743522	veux savoir	-0.07524167
-1.0868454	connaitre savoir	-0.07524167
-0.61302555	désires-tu savoir	-0.07524167
-0.61302555	souhaite savoir	-0.07524167
-2.7446609	et découvrir	-0.07524167
-2.4536831	un tas	-0.07524167
-2.1982806	que désires-tu	-0.07524167
-2.7446609	et quantifier	-0.07524167
-1.4557122	comprendre sentir	-0.07524167
-1.5130248	nous entoure	-0.07524167
-2.701097	et ressentir	-0.07524167
-2.5280113	de ressentir	-0.07524167
-1.6801231	veux ressentir	-0.07524167
-1.0897532	ressentir classer	-0.07524167
-0.91434544	sinon classifier	-0.07524167
-2.25701	je souhaite	-0.07524167
-2.1399577	les études	-0.07524167
-1.9982178	l' histoire	-0.07524167
-2.3780615	la géographie	-0.07524167
-2.1399577	les maths	-0.07524167
-0.83026314	les sciences	-0.32265213
-2.3780615	la biologie	-0.07524167
-2.3780615	la physique	-0.07524167
-2.1495254	le travail	-0.07524167
-1.5638143	j' apprécie	-0.07524167
-0.614	apprécie énormément	-0.07524167
